<?xml version="1.0"?>
<opencv_storage>
<opencv_ml_svm>
  <format>3</format>
  <svmType>C_SVC</svmType>
  <kernel>
    <type>LINEAR</type></kernel>
  <C>1.</C>
  <term_criteria><iterations>10000</iterations></term_criteria>
  <var_count>36</var_count>
  <class_count>10</class_count>
  <class_labels type_id="opencv-matrix">
    <rows>10</rows>
    <cols>1</cols>
    <dt>i</dt>
    <data>
      0 1 2 3 4 5 6 7 8 9</data></class_labels>
  <sv_total>45</sv_total>
  <support_vectors>
    <_>
      0.000883619592 2.22744679 2.34193277 0.692878962 0.609763443
      0.36131373 -0.0160990115 -1.64557457 -1.40021718 -0.0421555378
      0.0250557177 -0.0127307875 2.23021364 2.49354029 1.2550627
      2.79943895 2.77103639 2.19167948 -0.265683055 -0.100451775
      0.0196662229 1.46478534 2.80087423 2.14591956 3.80258965
      4.40951014 3.00153995 0.443786919 1.38475597 2.71173 3.23242521
      0.563346982 -0.212127984 -0.689485013 -0.93596524 0.467977434</_>
    <_>
      0.431777716 4.88510466 0.913058877 -2.54746985 -5.35790014
      -3.24284744 -3.5439043 -2.74207664 -1.34765315 1.60889697
      -1.66139233 -3.40580511 -0.802913666 1.6653676 2.56219745
      2.80011153 2.41936851 1.94559729 -2.85116649 -4.60235596
      0.66589123 2.56003571 1.45628095 2.45949531 2.22666335 1.30117285
      0.0828414261 0.255678415 -0.507977307 1.18543231 0.529369116
      -5.56054449 -4.24496841 -3.1631186 -1.88624847 -0.0414359458</_>
    <_>
      0.367152572 4.51979256 1.09069002 -1.86303914 -4.68299103
      -2.48502541 -2.42313242 -2.04264259 -0.836346686 2.2278738
      1.48550105 -2.4717536 -3.15969014 -1.85440111 0.0563270822
      0.558811247 2.0611794 2.42727518 -2.2775414 -3.8693316 -1.66481173
      0.362288058 -0.0235992223 0.841058731 0.988149345 0.997249365
      -0.631551027 -2.22561097 -1.25042629 0.556512952 2.26810241
      0.292757481 -2.4844532 -3.44165778 -3.87790751 -2.60682273</_>
    <_>
      -2.35817051 -0.0838030726 1.44159758 -0.119559422 -4.2508316
      -2.22099423 -3.17894459 -4.23011541 -3.93380952 -0.133644387
      -1.90067518 -1.06279778 0.632118225 -1.07943368 -0.754368424
      2.37129426 2.26770973 1.7103411 -0.253121853 -3.64148641
      -1.67344785 -0.0162951797 1.14746559 2.7020092 6.66050196
      5.62639332 4.03991079 -1.44501472 1.01677048 3.02389812 1.03823483
      -2.92714667 -2.65577865 -1.98206413 -2.93679261 -2.61509132</_>
    <_>
      -1.79660738 2.04717231 2.83977532 0.682160676 -1.94452715
      -1.39793944 -1.68487418 -2.44801998 -1.4831351 1.33654273
      0.531940579 -3.05573463 -3.91725802 -2.011379 -1.19183564
      -0.122848779 1.16650689 1.56108093 1.14424896 -1.20271754
      -1.27184641 -3.7715795 -2.48476362 -0.47983098 2.93352556
      3.62975383 2.30480099 -2.9206934 -0.287252396 0.797526836
      3.86358666 0.781922758 -2.08214808 -3.75405955 -4.02760744
      -3.43456006</_>
    <_>
      -3.62919235 -0.463633865 2.33348632 2.85570478 2.57501197
      0.874178529 1.70341623 -0.614555895 -2.38382673 -0.290088266
      -0.31948477 -1.40538251 0.2180475 0.0435796641 0.904256463
      0.175469622 -0.451889068 0.393839449 1.94523966 -3.57256103
      -2.71984911 -0.73144418 -1.09515154 1.98770118 4.36106014
      5.63898897 5.07145834 -0.201801598 1.32505548 0.151642859
      -0.663845718 -5.16627645 -4.66022921 -5.211164 -3.61151195
      -2.47240186</_>
    <_>
      0.66041702 2.93866587 1.34486663 -2.32896924 -5.01611805
      -2.87883115 -3.31287217 -2.38405418 -1.02073073 0.405473322
      -1.55156481 -0.251517743 1.19461346 1.80036759 2.30503058
      3.63076496 3.53752112 2.34115076 -0.367087007 -1.72900903
      0.0660217032 -0.515456676 -1.93580389 -0.396222323 1.46241379
      2.28444648 0.769649208 -1.34725559 -0.780882716 2.65707183
      2.70501518 0.329539895 -0.366859585 -0.0111295432 -0.243963674
      -1.31464314</_>
    <_>
      -0.879856884 3.4526341 -0.432866126 -0.261426002 -2.23529887
      -2.59474683 -4.16563511 -5.24130297 -4.3750453 -1.39941919
      -3.80441904 -3.65303779 -1.1967783 -0.239080876 0.94297272
      1.20783627 1.21998465 -0.717523932 -0.364803433 -3.59616065
      -5.06078672 -4.50967693 -2.16830397 -0.197360322 1.55872631
      3.30862951 1.37251544 -2.24128222 1.73340333 1.20437908
      0.412177205 -0.333890647 -2.38569641 -4.12581587 -4.76950312
      -4.79028893</_>
    <_>
      -0.918111324 0.397709191 -1.57255232 -3.71822262 -4.52876568
      -2.66654015 -6.37063217 -5.15516329 -2.67040682 0.326039106
      -1.46230793 -0.770567775 -1.20210612 -0.893655717 -0.25670436
      1.4615587 2.94791126 2.82714963 0.816294074 -2.95041537
      -3.74901104 -2.77636027 -1.53419101 0.957322657 1.62140012
      2.43156409 2.50546598 -4.64044237 0.127392396 3.68183064
      4.71959686 1.6770277 -0.934293032 0.0496596992 -1.70549142
      -4.33780098</_>
    <_>
      -0.156930387 -0.957173288 -0.770263433 -2.21882653 -2.76895523
      -0.915301621 -0.827831328 -0.380519897 0.0257344488 0.756488681
      -1.02897334 -0.689712048 -0.57953018 -1.50964618 -0.583368719
      -0.78398788 0.0556570962 0.849265933 0.0898279548 -0.0343502015
      0.359763294 -0.713115454 -1.64631498 -0.847071648 -1.22285521
      -1.29069996 -0.659254551 0.0128410114 -0.799477398 -0.325417846
      -2.59483981 -3.49221873 -1.0707016 -1.55268025 -0.696062803
      0.187688306</_>
    <_>
      0.561397493 0.0453997329 -0.393449455 -1.58535993 -2.25060987
      -1.44501102 -1.18947697 -0.051691398 0.362740338 1.01005208
      0.224693447 -0.912433624 -0.436254442 -1.76552296 -1.43159783
      -1.64686239 -0.301695526 0.784373522 0.00825570896 -0.163168028
      -0.359428912 -0.886129737 -1.59530354 -1.48255038 -1.78297269
      -1.44870245 -0.472457111 -0.728077888 -1.15747786 -1.05093896
      -0.413312912 -0.434969038 -0.640432417 -1.02018273 -0.846515894
      -0.776840806</_>
    <_>
      -1.25345838 -1.804829 -0.639741421 -1.7443068 -3.20929313
      -1.93515909 -2.03214836 -1.88020945 -1.85464537 0.376666874
      -0.0841780677 -0.171838611 -1.98406613 -4.12550688 -3.19100475
      -2.5582521 -1.10994077 -0.223221332 0.307938129 -1.13962948
      -1.13827658 -1.31362474 -1.97366905 -1.53780413 -0.0271000899
      0.0385184549 1.20331681 -0.550703466 -0.812009394 -0.792445958
      -2.2231102 -2.2481432 -1.30388343 -0.220543593 0.43237856
      -0.926351547</_>
    <_>
      -0.191872627 -0.244815782 0.569026232 -0.71327585 -0.970344305
      -0.448613971 -0.332277834 0.0187745076 -0.290740937 0.629738033
      0.404750735 -0.558114886 -1.00535488 -1.96134841 -1.37705874
      -1.69067872 -0.841565907 -0.201250151 0.641002774 0.294962645
      -0.911303759 -2.75359726 -3.73936033 -1.76098967 -1.11743689
      -0.466296375 0.692102432 0.213509306 -0.0314541087 -0.723596454
      -0.313000947 -0.324998975 -0.182007596 -0.632512569 -0.607703686
      -0.874954104</_>
    <_>
      -1.87851834 -1.28515661 -0.26740551 0.701717019 0.573621333
      -0.0667964369 0.426615 0.62929523 -0.730262637 -0.164440259
      0.350844562 0.0137289846 -0.173704743 -1.94254804 -1.57680213
      -3.22863317 -2.54724455 -1.26209641 1.75785136 -1.13383186
      -1.71228099 -0.888725042 -2.08531952 -1.54762542 -1.19695914
      -0.38404426 1.86776173 -0.0577723868 -1.20034504 -2.31693769
      -3.45454574 -3.83008933 -1.42219067 -1.65217209 -0.617602229
      -0.813363194</_>
    <_>
      0.0128928758 -0.0269871783 -1.28049767 -2.71621704 -4.92726707
      -2.06640577 -1.7621032 -0.435404241 0.197529495 0.292500854
      -0.196019232 -0.0145742949 0.422357619 0.285345286 -0.0234527532
      0.307684153 0.930059254 0.96428436 -0.0188536979 0.431549311
      0.0243239738 -1.09333849 -3.47756433 -2.34147573 -2.37485099
      -0.678078175 0.199247032 -1.01155889 -0.577489376 0.306011975
      0.634573281 0.73361665 0.0854121223 0.318019718 0.599029005
      -0.361536056</_>
    <_>
      -0.430511951 -0.912331581 -1.72971177 -1.46271884 -2.08541131
      -1.07231176 -1.11369348 -1.22132587 -1.25311565 -0.314362735
      -1.04387271 -0.897134125 -0.241918191 -1.41083646 -0.850624502
      -2.60093093 -1.70640707 -1.49723113 0.504181206 -1.02930558
      -1.73810863 -3.31135392 -4.32636261 -2.03645492 -2.15172124
      -1.29738867 -0.347689152 -0.432245553 -1.05036247 -1.85294414
      -1.37427318 -0.94868958 -0.0810975879 -0.910184145 -0.867344081
      -2.19045162</_>
    <_>
      -0.0204973072 -1.63055527 -3.01188946 -2.85365248 -3.39157629
      -1.64933729 -2.30091596 -1.4573406 -0.334535182 -0.0505573377
      -0.417588532 -0.211005345 -0.606559753 -1.59184492 -1.75338054
      -2.02276206 -0.840715289 -0.0320938192 0.465218931 -0.653566003
      -1.78220844 -2.28781033 -3.61487174 -1.75303745 -1.76974475
      -1.52012932 -0.454785019 -2.42466974 -0.335001945 -0.0727374852
      -0.264757752 -0.203738227 -0.34580493 0.353107423 0.236162409
      -1.81122565</_>
    <_>
      -4.14794779 -1.33687127 -1.20122731 -2.49241662 -0.925159037
      -1.18752921 -1.59838653 -2.10704923 -4.94214964 2.51641417
      5.76200199 2.91852593 1.90678048 -2.4410224 -3.71684623
      -3.09080386 -0.392492563 1.10867131 3.52413511 1.71091259
      -4.98537493 -1.66559947 -3.45887113 -3.06954765 -2.51891112
      1.64510548 2.33592415 -4.1383152 -3.8972683 -4.6220746 -2.06961298
      5.66897106 4.59282541 0.203776017 -2.83635879 -4.70163965</_>
    <_>
      -0.929954529 -1.5172441 1.02601993 4.34093666 1.41519916
      0.00843153335 0.629441917 -0.78108114 -1.05173421 -1.3307755
      0.526199996 1.83747435 0.955959022 -2.02869081 -2.46038461
      -0.481717587 -0.166341722 -1.37356091 1.49834144 0.705778539
      -2.5057435 -1.85686898 -0.95723474 1.00687814 5.42472029
      3.44598842 3.7272768 -3.59020281 1.13633466 2.29061532 3.70109057
      3.29325438 4.16916466 3.21971035 -0.0937518477 -3.58368182</_>
    <_>
      -4.14507246 -2.91675854 0.785459101 2.45769691 1.93838453
      1.22550511 0.396205783 -0.811782718 -2.81076574 0.36242637
      1.99255097 0.685843587 -0.204795986 -0.589291632 -3.06840301
      -2.61071444 -0.798484802 -0.1493738 4.34878492 4.24617624
      -1.01264274 -5.3564477 -3.31564164 -3.25593424 -0.829639196
      2.11149693 4.16867638 -2.56113625 -1.86141419 -1.70332611
      0.0862264782 1.73549926 2.44041514 -0.245707154 -1.39034057
      -2.07409286</_>
    <_>
      -2.82528305 -2.64626789 1.25865948 4.05497694 6.08687401
      2.32420397 2.92370081 1.97959995 0.228232309 -2.63687038 1.4649781
      1.16881061 0.545074403 -0.610506058 -1.13373387 -1.9508096
      -2.28606009 -2.55481863 4.49628973 1.27670491 -1.03343987
      -2.04255629 -2.24664259 -1.39576221 0.149265945 1.91196239
      3.71740866 -0.610801816 0.966075659 -1.2854414 -1.03929245
      1.15797698 0.953515232 -0.586279988 -0.689144969 -1.5564661</_>
    <_>
      -0.00477142539 2.34327555 2.90256095 0.177443936 -1.56934464
      -1.80072713 -0.64942205 -0.19826515 -0.382888615 -1.83606577
      -0.98046273 2.09603715 1.95784485 1.41861284 1.09225154 1.96209431
      1.24399805 -1.03161883 1.60700655 1.22097588 -0.473016769
      -2.81772208 -3.86581063 -2.08449292 1.33326757 2.7876184
      2.32529378 -2.31910086 -1.17754948 1.14207923 4.24929428 4.8289237
      2.48116326 2.40249443 1.51858866 -1.59136522</_>
    <_>
      -2.44308043 -0.475553244 -1.40441334 1.5782361 3.01596284
      -0.0707892403 -1.47693813 -1.98941326 -2.46487117 -2.30814242
      0.288310707 1.25464129 2.12367201 0.807618082 -1.58028185
      -3.76686168 -2.29176641 -2.70761156 2.2844255 0.702834547
      -5.11268759 -5.02862835 -3.89912748 -2.4643476 -1.39611983
      1.35537398 2.10609245 -2.0445087 0.323195159 -1.0796026
      -0.44843027 3.5721395 2.7281611 0.16561754 -0.884582877
      -3.20908546</_>
    <_>
      -1.57947958 -2.12958026 -1.84750211 -0.572588503 1.37003636
      -0.241935983 -1.62696445 -1.7686832 -1.54760408 -0.0473700687
      0.331538022 2.33066702 1.63372862 -1.08944285 -1.9704479
      -2.38130307 -0.90048945 -0.0449257754 3.44486165 2.51500344
      -2.68317962 -5.16632652 -2.83369613 -1.27869391 -0.346449643
      1.08094883 2.07467246 -4.1194582 -0.3739115 1.27441573 4.07249117
      5.84953833 4.36052704 4.66817141 0.93556267 -2.3871057</_>
    <_>
      -1.04266834 -2.48101759 0.893871963 2.45991278 2.00444889
      0.363247603 0.142225251 -0.960846245 -1.32354689 -1.38283658
      -1.54672468 2.05687022 1.78957379 -0.0689276084 0.491684079
      2.40547252 0.789675832 -1.24486744 -0.753298283 -0.263890713
      0.0723774657 1.12692428 1.94329298 2.54125476 5.49496126 3.6129365
      1.56086969 0.522515893 2.78915381 4.15347004 0.848309934
      -1.2201643 0.910774112 2.4464941 1.54668808 0.841089904</_>
    <_>
      -4.73502588 -5.05840921 0.865223169 4.54913521 4.978055 2.42994332
      0.23292172 -0.716106355 -2.66674471 -0.587771833 -0.841792881
      -0.0940141454 -0.624130964 -0.268160403 -1.65909076 -1.05330074
      -1.13841772 -1.0834018 6.32798147 6.1568327 2.82039309 -7.25051308
      -3.3928318 -2.44310713 0.540970981 0.996779144 4.99744463
      -0.567107618 -0.791595995 0.887923777 1.59237874 -0.443269819
      0.338575512 1.09962654 0.833703995 -0.399562299</_>
    <_>
      -2.48934174 -2.74025583 0.823942363 2.48656297 4.76954651
      2.48844647 2.79051614 0.938845754 -0.902668834 -2.59055853
      -1.07538307 1.22461247 1.32405663 1.08863509 0.677013576
      -0.563912272 -2.06760812 -2.8689568 2.09407926 0.782079279
      -0.250647694 -0.892626286 -0.460913867 0.234832257 1.15628695
      2.04789805 2.20563459 1.2517879 1.66495013 0.310390145 -1.59441566
      -1.50663102 -0.608128965 -0.123533666 1.14067662 1.23026991</_>
    <_>
      0.792487919 0.484999359 2.74628186 0.225949839 -0.97523731
      -0.820173204 0.270819366 0.36719197 1.44945979 -2.96692443
      -3.67107463 2.7720449 3.09746695 3.3797214 3.2297554 4.11524296
      1.66168928 -1.40632474 0.877683818 0.713325262 2.23023534
      -0.0424069166 -1.70350242 -0.507913411 1.27198434 1.75489473
      1.8422792 0.506008089 0.186495945 3.04331064 0.804290891
      0.619132519 1.16967905 2.62240958 2.45301533 1.1278187</_>
    <_>
      -0.890503824 -1.64689744 -1.70411396 1.79838681 4.73170137
      0.548434854 -1.71696818 -2.49345016 -0.493448049 -6.18645573
      -5.06549692 1.56445301 3.46289873 4.90000582 1.06942022
      -0.581880987 -2.06244063 -4.56720924 2.17044544 1.14725709
      -0.86254853 -3.41889071 -2.41621017 -0.409822196 0.539886713
      1.76587021 2.55968165 1.25872195 1.71206331 0.724018753
      -2.74906993 -2.52026343 0.942694664 1.26708102 0.915371299
      0.809359431</_>
    <_>
      -1.24224102 -4.89752722 -2.997787 -1.43689358 2.27745891
      0.464565128 -2.25238204 -2.30636764 -0.183863714 -2.01101542
      -2.69727921 3.02659798 2.76068306 1.68333483 0.231965691
      0.741316855 0.0302525871 -1.34444892 2.43537498 3.66909361
      0.812651455 -2.41093636 -1.71785283 -0.253071547 0.178063661
      1.38249028 2.44666409 -1.24604976 1.86180818 4.79472685 1.72552443
      1.16470873 2.4975369 6.53596258 4.01575375 0.523929417</_>
    <_>
      -0.767952085 -0.0588070787 0.900107801 -0.245544583 0.0440718494
      0.933341503 1.26609921 1.32399309 0.0504240133 -0.175773874
      0.660884619 -1.74568558 -2.58181667 -0.43479839 -1.25643384
      -2.40400004 -1.86734724 -0.668731689 3.00344729 2.67037225
      -0.444285542 -4.42117167 -4.06699657 -3.51245022 -4.3590517
      -0.979748487 1.83853257 -0.142093942 -1.1113286 -2.12319469
      0.988953769 1.66004753 -0.140052795 -2.77328706 -0.988829911
      -0.849720895</_>
    <_>
      -2.9484477 -0.987406313 0.475609809 1.94274366 6.81263924
      3.82466578 4.87705183 3.80335855 1.02181995 -0.649603665
      2.00939178 -0.0166126806 -0.55226016 0.684471071 1.98352027
      -2.18189812 -3.31884527 -2.48342037 3.34610534 0.506256163
      -1.35665584 -0.467379153 -1.20088696 -1.62253082 -3.59642482
      -1.03962898 3.42604899 1.7110312 0.164522558 -3.61554003
      -2.71620393 -2.47404671 -1.85467184 -4.32110405 -1.33928919
      0.394076496</_>
    <_>
      2.2138989 4.10305929 1.64319563 -3.1558342 -3.23942137 -2.27483344
      -0.712086558 1.43749893 2.4127624 -0.786948085 -1.21132004
      -0.100514375 2.08219862 4.68409824 3.8332057 2.80586624 1.31735957
      -0.937761009 1.01752949 1.12129819 1.74027026 -1.45847404
      -3.56567359 -3.20584917 -3.39244938 -0.275636375 1.17237639
      -0.466011345 -1.44326866 -0.318066984 1.1668129 3.2528193
      0.654887736 0.111197852 0.519516706 -0.21643503</_>
    <_>
      0.610814929 1.69472694 -2.98669577 -1.68002665 0.531014085
      0.49978888 -0.246403068 0.528668702 0.150152713 -1.60081255
      -1.82115972 -1.73941624 -0.206738114 1.99094057 1.78584468
      -2.17551732 -2.63575768 -3.37700558 2.08809543 0.718140125
      -1.99547768 -4.42946529 -3.67911148 -2.4371419 -6.64190102
      -3.43523884 -0.41427961 -0.0540334582 -0.906359792 -3.42493463
      -0.519110858 2.53244233 0.625531197 -2.88399744 -2.58353615
      -2.5837357</_>
    <_>
      0.954055488 -0.434495568 -4.82226086 -5.30860376 -0.110405125
      0.706999958 -1.04305017 0.788086355 1.91607356 -0.243853495
      0.538929284 -0.060691189 0.955628693 2.46572757 0.577664316
      -1.7806915 -1.97860169 -1.14415693 1.27883136 2.63653636
      -1.08319104 -3.67417479 -4.86518002 -3.40785861 -7.0133934
      -4.0529995 -0.658784091 -2.53836942 -0.901011825 -0.517532647
      2.68770623 4.99449921 2.45932484 2.76393604 0.921113074
      -1.69280064</_>
    <_>
      -1.09063017 -2.85726666 -1.10614443 1.34234965 4.50561571
      2.83771992 3.36976743 1.81325769 -0.652935207 -1.2637825
      -0.133233324 1.8505764 2.37846541 0.652099073 2.80838919
      -0.323075563 -1.37186301 -2.0536046 0.209022805 -1.30897236
      -0.889927447 2.80236697 2.53958917 2.0763495 0.426585704
      0.274011374 0.122716352 1.80241251 0.67248708 -1.46782577
      -3.92313361 -4.05482531 -2.71081614 -0.807074845 1.05030334
      1.81671822</_>
    <_>
      3.01031804 2.78676534 0.702162385 -1.25615287 -2.03556776
      -2.42522979 -1.32257247 0.0997061357 2.31253576 -1.04704213
      -2.07308125 1.81838727 2.20457292 2.04579616 3.18167973 3.75769877
      2.23198342 -0.135388121 -1.83080065 -2.54228687 0.563123286
      3.55149579 0.556918085 0.998705626 1.13307762 0.574007988
      -1.211869 0.145815685 -0.217129335 1.69264114 -0.0598237216
      0.444431245 0.47380513 2.17309523 2.08258605 0.480371326</_>
    <_>
      2.056252 2.34687471 -4.12025642 -2.25374293 -0.842383385
      -1.21062779 -1.76820982 -1.17693686 0.637809694 -4.0268569
      -3.90510798 1.3114785 4.86705971 4.90278578 4.00353479 0.386295736
      0.184588552 -2.80566812 -3.51377559 -4.77146769 -2.64452744
      2.98860765 2.63083434 0.874913573 -1.32206249 -0.984307766
      -2.03582239 1.44130075 1.98240948 -2.486094 -5.45662355
      -2.20494103 -0.794750512 0.780104876 -0.092781812 0.606578171</_>
    <_>
      1.96779251 -0.17243202 -4.14432716 -4.8455162 -1.58750856
      -1.53409266 -3.10016513 -1.44924009 1.2138437 -0.398402184
      -0.962721348 2.47345328 2.95850658 1.3041507 1.72356212 2.54885578
      1.90033138 0.493129283 -2.74376106 -2.33131194 -0.165346682
      4.78957129 1.71838319 1.76797473 -1.06437528 -0.667213142
      -2.18034244 -0.488007724 0.815679014 2.04242754 -0.108471602
      0.915230632 2.29472661 6.58022308 2.71838069 0.881374657</_>
    <_>
      1.74333656 2.32027292 0.287509531 -2.40933442 -4.60884809
      -2.6028204 -2.30847073 -1.07185054 0.179442868 0.601564765
      -0.887113273 0.316888481 0.557958901 1.42950964 1.39856827
      2.69832563 2.37669373 1.24259746 -1.13553548 -0.194273084
      0.973700106 -0.235970199 -1.47322989 -1.11960423 -0.274405867
      0.0377884991 -0.842002809 -1.10791683 -1.10393035 1.30291891
      2.0589211 2.07743812 1.14002347 1.78429544 0.903262317
      -0.347499132</_>
    <_>
      2.66275764 2.98193288 -3.05851865 -4.06116772 -5.1825881
      -2.33149719 -4.89980078 -3.93208003 -1.00180566 -0.485154748
      -2.76503992 -1.38173723 -0.32990399 0.748900115 -0.104862742
      0.818751037 1.41070485 -0.458314776 -2.26319313 -1.02353227
      -1.48329771 -3.44545126 -1.59602261 -0.782748938 -2.33832836
      -2.47858071 -3.25439143 -0.725893915 1.05701602 1.00967383
      1.60448837 5.19616508 2.58843994 1.06040382 -1.59145236
      -1.71713185</_>
    <_>
      2.05736089 0.467076153 -1.7415204 -3.88251233 -4.44794178
      -1.79348123 -3.75112867 -2.83769393 -0.0970938206 1.08290362
      -0.369441837 0.22976847 -0.405143708 0.501969755 -0.497524709
      0.905045807 1.75938201 1.65573156 -1.58749521 0.0659045875
      -0.0420322865 -1.09311891 -1.30277479 -0.357111871 -1.31665552
      -1.51357472 -2.33168244 -2.63351631 -0.876405895 1.48681056
      3.09324551 3.99701118 2.62028694 4.15149021 1.33476412 -1.55958104</_>
    <_>
      -1.07548487 -0.486428499 -2.54269314 1.36089408 4.53036213
      1.35762799 -0.503885806 -0.472413033 -1.6620785 -1.07943869
      -0.742269695 -1.89585745 -0.421409369 -0.481361687 -2.63187647
      -6.21461821 -4.06506538 -2.66053843 0.572116733 0.165468693
      -3.13450837 -2.69023609 0.360553056 -0.405218959 -0.892213523
      -0.92478776 -1.20597243 -0.0139100524 0.17694369 -2.8721056
      -2.55414271 -0.438043654 0.137893349 -2.26143312 -3.07243299
      -1.83933723</_>
    <_>
      -1.75862443 -2.38327932 -6.60676622 -0.503165781 4.89131498
      2.06702018 -1.06150889 -2.23303747 -2.51476645 -0.420271188
      0.421695948 0.0166254193 -0.982172787 -6.19919395 -6.14572144
      -7.03495264 -3.70344615 -0.599675238 0.8585729 1.61935461
      -4.41473389 -3.38164806 1.65476418 0.648358941 -1.92383611
      -1.57657552 -0.629582703 -2.40251255 0.209580898 0.574903667
      -0.380138993 -0.447283655 0.572507381 1.27719438 0.694208264
      0.127476007</_>
    <_>
      -1.06433833 -5.39794493 -2.0036006 -4.84828949 -3.64883232
      0.757207274 0.790638447 -0.202844024 1.89610016 2.64372849
      3.77065516 3.30454016 -0.474626333 -2.227355 -2.6953969
      0.826274633 3.09808373 5.22707939 -1.08713162 1.16862738
      1.60048747 2.40085626 0.819541991 1.17839253 -0.522295535
      -1.12774789 0.0182550028 -2.94836164 -0.0129411351 5.30976057
      5.31881618 2.70675159 1.69525635 6.66373396 5.24006414 2.45133567</_></support_vectors>
  <uncompressed_sv_total>5339</uncompressed_sv_total>
  <uncompressed_support_vectors>
    <_>
      0.222632244 0.27567327 0.27567327 0.0886010379 0.136781648
      0.0492823236 0.0311619937 0.0258235149 0.0972618982 0.221854642
      0.27567327 0.225998566 0.0382447578 0.27567327 0.107882164
      0.0864969939 0.030130744 0.13719894 0.232616499 0.27567327
      0.245892197 0.057105165 0.109575644 0.0373263247 0.0265033357
      0.0503214002 0.0893985033 0.0926950201 0.230416626 0.176665932
      0.245281741 0.27567327 0.112679668 0.0389328338 0.0106948009
      0.0341200568</_>
    <_>
      0.149564743 0.255756915 0.255756915 0.117352553 0.255756915
      0.141847685 0.11375092 0.0450132973 0.0875690579 0.206814647
      0.255756915 0.114083126 0.107394867 0.25369814 0.137679219
      0.0987904593 0.0592473745 0.10358607 0.171977952 0.255756915
      0.255756915 0.131182268 0.176945493 0.0519903488 0.0289419517
      0.00594906695 0.0594359636 0.255756915 0.255756915 0.248597398
      0.136477277 0.196257412 0.0609912872 0.0355622284 0.042943038
      0.0981852338</_>
    <_>
      0.22897251 0.199787751 0.236917585 0.0932787806 0.139217257
      0.108259909 0.194792554 0.246126696 0.168784425 0.128832892
      0.0920578316 0.16868566 0.056526389 0.140356377 0.0877516121
      0.185168847 0.260761678 0.13567701 0.139091149 0.0773153529
      0.137494087 0.0524891242 0.110803366 0.0931828395 0.238306046
      0.260761678 0.195357114 0.105551921 0.0542065687 0.137300044
      0.0369094834 0.109665588 0.0622573569 0.260761678 0.260761678
      0.245372996</_>
    <_>
      0.0715292841 0.119564153 0.257410586 0.257410586 0.257410586
      0.0968586206 0.0655874535 0.0379573405 0.0564325005 0.152900159
      0.257410586 0.257410586 0.12727274 0.244524062 0.0875205323
      0.0712252632 0.0400173739 0.0852939412 0.131385833 0.101069339
      0.257410586 0.257410586 0.257410586 0.163880453 0.157411829
      0.0794032738 0.0500876307 0.157901317 0.257410586 0.257410586
      0.14117673 0.189467251 0.0434339382 0.050399214 0.0276918095
      0.047386393</_>
    <_>
      0.136650085 0.228930101 0.259794384 0.0787453875 0.228689313
      0.0641860887 0.0631400123 0.0352819599 0.0862265974 0.259794384
      0.259794384 0.221593201 0.0697030202 0.19085677 0.110269167
      0.0867459849 0.0591407046 0.12778689 0.20063889 0.259794384
      0.259794384 0.107579082 0.259794384 0.0794668347 0.084633179
      0.0230567716 0.088706471 0.259794384 0.259794384 0.251690209
      0.0680773184 0.148368746 0.0631636828 0.0264223013 0.01967429
      0.111412957</_>
    <_>
      0.131349415 0.107010178 0.112325922 0.0795560405 0.257942289
      0.180928811 0.257942289 0.163102835 0.146181509 0.0678819492
      0.0376967117 0.0489125587 0.0515938736 0.257942289 0.212770551
      0.257942289 0.201725662 0.1124461 0.0351794846 0.0133116283
      0.01495005 0.0287754871 0.242694974 0.167739019 0.257942289
      0.219767272 0.0590215027 0.0580534115 0.0467551686 0.107417621
      0.156066939 0.257942289 0.241021559 0.257942289 0.21104832
      0.0909090638</_>
    <_>
      0.105546981 0.219399467 0.279463768 0.178989813 0.160329685
      0.0544207208 0.0323086642 0.0151602514 0.0563185625 0.242878377
      0.279463768 0.279463768 0.13287957 0.153650105 0.0582401156
      0.0213735942 0.0212558527 0.0605447292 0.170010507 0.279463768
      0.279463768 0.166170582 0.220302835 0.09126506 0.0942735374
      0.0316384844 0.0693479329 0.262461394 0.279463768 0.279463768
      0.0967414007 0.0944570005 0.0174018666 0.00568763446 0.00650409516
      0.0473125502</_>
    <_>
      0.22900413 0.22900413 0.133927673 0.0939575359 0.180538669
      0.022663245 0.0827124938 0.0523806326 0.171029612 0.207951412
      0.0890601054 0.15972349 0.117393821 0.216549054 0.0524434447
      0.22900413 0.203282818 0.22900413 0.17877987 0.184431091
      0.112499706 0.105449952 0.22900413 0.0439229012 0.17785655
      0.0830310881 0.107855596 0.196906298 0.143908307 0.22900413
      0.161287233 0.22900413 0.0782153457 0.22900413 0.168236792
      0.190432906</_>
    <_>
      0.2431712 0.2431712 0.113138154 0.0333107486 0.0439680107
      0.0230073929 0.0691845566 0.109198593 0.230243519 0.224080563
      0.197394088 0.10854622 0.0538068935 0.0880844966 0.0733467489
      0.2431712 0.221681982 0.214743271 0.218742967 0.2431712 0.2431712
      0.0793686807 0.116940163 0.0565893203 0.0878069699 0.103335455
      0.156475991 0.2431712 0.2431712 0.2431712 0.106159456 0.117541663
      0.0610363036 0.181979626 0.109670617 0.195736215</_>
    <_>
      0.235330418 0.235330418 0.124098368 0.173708051 0.192154154
      0.0676591322 0.0515986048 0.0140422145 0.107940815 0.203644425
      0.159417957 0.235330418 0.235330418 0.235330418 0.13596423
      0.0930081457 0.0329911448 0.090332374 0.14979361 0.174441472
      0.186068505 0.235330418 0.235330418 0.117998794 0.113027237
      0.065804854 0.0670100003 0.122968771 0.203364566 0.235330418
      0.204904228 0.235330418 0.179678515 0.174670056 0.0593387261
      0.0811119676</_>
    <_>
      0.23512736 0.23512736 0.23512736 0.0405902192 0.135482118
      0.0813837126 0.114557497 0.0642030835 0.17962943 0.196788773
      0.174759865 0.118237056 0.0309089478 0.225185558 0.171194211
      0.183950737 0.125904977 0.180891559 0.23512736 0.200979486
      0.128905848 0.0402386524 0.143198356 0.0600379109 0.117777981
      0.0980248228 0.23512736 0.23512736 0.137696609 0.0967859402
      0.0604948103 0.229452685 0.125723541 0.163328037 0.233558863
      0.23512736</_>
    <_>
      0.154402807 0.209660932 0.228944898 0.086720407 0.140847057
      0.0477447324 0.0973043889 0.128136069 0.168568552 0.142125636
      0.124543712 0.228944898 0.168882698 0.228944898 0.0434915051
      0.162619233 0.10418532 0.174542934 0.158363074 0.158393264
      0.209458649 0.118427381 0.228944898 0.106061764 0.228944898
      0.228944898 0.218014792 0.120049275 0.211467564 0.228944898
      0.228944898 0.228944898 0.0213688295 0.0533302911 0.0555368513
      0.0893474296</_>
    <_>
      0.0866018981 0.0623619519 0.273325354 0.273325354 0.273325354
      0.0280115493 0.0882162899 0.0831318796 0.0990971774 0.237118766
      0.153490007 0.144709975 0.103071079 0.100228675 0.00702670589
      0.0216155574 0.0348630063 0.119176678 0.273325354 0.0647013038
      0.110555954 0.117723122 0.273325354 0.0336065255 0.148431808
      0.273325354 0.273325354 0.273325354 0.273325354 0.0927411914
      0.0288307853 0.0377790295 0.00668114424 0.0354391076 0.102933802
      0.273325354</_>
    <_>
      0.195696101 0.234302074 0.175612941 0.00441704132 0.159801394
      0.0666154996 0.0935929418 0.0862442777 0.163942859 0.234302074
      0.234302074 0.119288065 0.0716008991 0.150696978 0.0728194267
      0.13404049 0.15599978 0.234302074 0.234302074 0.169291139
      0.0962121263 0.00675810222 0.16507718 0.098923929 0.168754011
      0.234302074 0.234302074 0.234302074 0.234302074 0.203685731
      0.120919496 0.183684394 0.0452794284 0.0783590078 0.123656623
      0.234302074</_>
    <_>
      0.115346126 0.143845469 0.20758462 0.161115631 0.24406074
      0.189327776 0.171995133 0.0625947341 0.111102402 0.0700951442
      0.151858926 0.24406074 0.194140106 0.169366181 0.131404698
      0.13847138 0.0367362164 0.0750552863 0.134083644 0.217958122
      0.137053818 0.0491903834 0.24406074 0.216690302 0.224262387
      0.146620795 0.140333593 0.136784211 0.24406074 0.24406074
      0.149801582 0.122182801 0.173249304 0.190617517 0.117476746
      0.125961348</_>
    <_>
      0.266534805 0.266534805 0.147796035 0.0460051745 0.144598708
      0.0434784852 0.0158803314 0.0230897162 0.152192131 0.204525694
      0.266534805 0.158453375 0.246306852 0.266534805 0.0852212533
      0.0602564998 0.0252779312 0.0730148554 0.266534805 0.266534805
      0.0619478412 0.0451859124 0.154012859 0.038725771 0.0325916521
      0.0179370921 0.179409742 0.266534805 0.266534805 0.0662708879
      0.195975721 0.266534805 0.0920376554 0.0974696055 0.065138489
      0.11449784</_>
    <_>
      0.0826918185 0.153441176 0.252272666 0.243037254 0.252272666
      0.0943264514 0.0215395354 0.010803856 0.034438625 0.224398091
      0.190544039 0.251413554 0.103532016 0.118223406 0.0542972051
      0.0197912585 0.00958329439 0.086638011 0.252272666 0.252272666
      0.156737953 0.0749034584 0.252272666 0.141915068 0.091788739
      0.04075367 0.156279996 0.252272666 0.252272666 0.252272666
      0.133764178 0.252272666 0.0683401227 0.0505262166 0.0186553635
      0.16969803</_>
    <_>
      0.171419397 0.282684207 0.282684207 0.142231092 0.107861817
      0.0129340012 0.00323200901 0.0328197256 0.0912901908 0.136303276
      0.282684207 0.282684207 0.259643495 0.105392881 0.000229120356
      0.0173097812 0.0300886594 0.0517594852 0.196105078 0.282684207
      0.282684207 0.105670914 0.0973668322 0.0206264481 0.00775320549
      0.0489039943 0.126121387 0.0833960176 0.282684207 0.282684207
      0.282684207 0.140229583 0.00997272786 0.00601522857 0.0115758581
      0.0371901207</_>
    <_>
      0.0991548747 0.0810819268 0.233352765 0.233352765 0.233352765
      0.0561990365 0.050568413 0.0646328628 0.13262552 0.132340178
      0.233352765 0.233352765 0.122058526 0.13088432 0.0373163819
      0.0187553689 0.0540383197 0.146628946 0.205199078 0.172173768
      0.150005698 0.181936935 0.233352765 0.0841054395 0.145125017
      0.151335016 0.233352765 0.213244811 0.233352765 0.233352765
      0.111221716 0.233352765 0.131252855 0.116355821 0.109924547
      0.233352765</_>
    <_>
      0.100193672 0.265960008 0.265960008 0.10606578 0.0860763863
      0.0344836526 0.0253036637 0.0259692241 0.062921077 0.0559779443
      0.221529827 0.265960008 0.265960008 0.261542529 0.044914294
      0.00908951368 0.00923064165 0.0447876491 0.193231851 0.265960008
      0.265960008 0.126736507 0.265960008 0.063049905 0.0710081384
      0.0619581267 0.134569407 0.0642447099 0.180498824 0.265960008
      0.265960008 0.265960008 0.0572611466 0.0643430427 0.0223769955
      0.0322012715</_>
    <_>
      0.239828452 0.162676662 0.116260692 0.0825078338 0.123140693
      0.144715458 0.201265469 0.159788966 0.225554824 0.173230439
      0.149119109 0.239828452 0.118721753 0.121890001 0.121621713
      0.158351719 0.0598672815 0.143191352 0.239828452 0.105684966
      0.0673289299 0.0346042439 0.0700085983 0.136088237 0.239828452
      0.170076266 0.239828452 0.239828452 0.169856444 0.239828452
      0.120078079 0.0950155929 0.128502741 0.239828452 0.0772209093
      0.220179707</_>
    <_>
      0.229193136 0.22256957 0.117062882 0.0615778975 0.220142126
      0.112526327 0.0606521033 0.0514750183 0.144585073 0.229193136
      0.229193136 0.229193136 0.134670407 0.196141005 0.074621588
      0.13585037 0.126596674 0.16049917 0.182716161 0.137709081
      0.0669878721 0.0645969585 0.229193136 0.197870448 0.171624526
      0.138968006 0.173929915 0.229193136 0.229193136 0.229193136
      0.111564875 0.166196704 0.0602987222 0.148125812 0.143269598
      0.185237467</_>
    <_>
      0.155381098 0.0119769219 0.0131451068 0.00308782328 0.0424745493
      0. 0.132702246 0.322189748 0.322189748 0.108989678 0.00637288671
      0.00503593683 0.00125377928 0.0138255209 0.00522371847
      0.0734091774 0.322189748 0.322189748 0.117820866 0.00399230747
      0.00438170275 0.00146265363 0.02065951 0. 0.136011034 0.322189748
      0.322189748 0.223599836 0.0531074144 0.0233611502 0.00576738268
      0.046004653 0.0156711545 0.12763603 0.322189748 0.322189748</_>
    <_>
      0.242034599 0.242034599 0.204302877 0.104529582 0.213316709
      0.0545242168 0.0539311469 0.0497742109 0.19132258 0.242034599
      0.165537208 0.0950271115 0.0957749858 0.242034599 0.053702265
      0.0689667165 0.069389306 0.192027181 0.242034599 0.242034599
      0.225461081 0.112785667 0.168382019 0.0449463278 0.0465568565
      0.0579940006 0.242034599 0.242034599 0.242034599 0.142822653
      0.0645508915 0.200539321 0.02960613 0.0466482379 0.080089353
      0.242034599</_>
    <_>
      0.0689571127 0.0529495105 0.156933844 0.258633018 0.287665814
      0.0932028294 0.0709090531 0.0427765697 0.0548501275 0.0719514564
      0.0421174839 0.112953223 0.217054158 0.287665814 0.222649544
      0.142296419 0.0356134027 0.0860433355 0.123667859 0.0654249936
      0.0950130001 0.0861811489 0.287665814 0.183975399 0.219428763
      0.119727634 0.0945562646 0.090087153 0.12282262 0.226781443
      0.240279481 0.287665814 0.245794311 0.224142969 0.105133101
      0.0883150548</_>
    <_>
      0.198793977 0.115792438 0.235670879 0.235670879 0.235670879
      0.0398618914 0.0559490807 0.0674732104 0.169615269 0.0829939246
      0.0305813998 0.191514239 0.157326654 0.235670879 0.0694291741
      0.180623367 0.093709439 0.112921722 0.0606300868 0.0645818412
      0.206555694 0.20104146 0.235670879 0.100517325 0.224865124
      0.140309975 0.093510218 0.167778566 0.138763055 0.235670879
      0.192389116 0.235670879 0.0961083323 0.235670879 0.191943437
      0.153601259</_>
    <_>
      0.0797648132 0.105143681 0.248342916 0.248342916 0.248342916
      0.0594060086 0.070255585 0.0364729129 0.0513025299 0.175485596
      0.217263117 0.21516861 0.201535478 0.248342916 0.0965341926
      0.0986832902 0.0419638678 0.0720298663 0.15433836 0.165304855
      0.205763713 0.248342916 0.248342916 0.0465565547 0.117628567
      0.151024982 0.107640386 0.248342916 0.248342916 0.196406901
      0.177544743 0.232124344 0.0314607173 0.0568482801 0.0498700626
      0.0937495753</_>
    <_>
      0.0815132558 0.077400513 0.190434963 0.257211298 0.257211298
      0.0515927523 0.118831128 0.093076542 0.125730991 0.257211298
      0.210233971 0.241614789 0.157234117 0.186434686 0.109070592
      0.201256976 0.188420549 0.257211298 0.0377002843 0.110167541
      0.257211298 0.257211298 0.257211298 0.0219054036 0.0568708889
      0.0515087098 0.0404156297 0.162599474 0.127958104 0.196684465
      0.173034355 0.14394702 0.0387674533 0.0961641744 0.105735481
      0.13624908</_>
    <_>
      0.0996243879 0.104006276 0.247657806 0.200589716 0.224483967
      0.032904502 0.120156594 0.152718619 0.1044254 0.0966247767
      0.113596343 0.247657806 0.247657806 0.247657806 0.100788288
      0.14737986 0.136092022 0.0994979739 0.103152364 0.136025891
      0.247657806 0.247657806 0.247657806 0.133762494 0.142735451
      0.124572217 0.101336852 0.124030791 0.126465216 0.247657806
      0.247657806 0.228853762 0.0221886858 0.0670106411 0.0850252211
      0.112674557</_>
    <_>
      0.24672015 0.18707718 0.0878865942 0.0436979756 0.207935303
      0.155460089 0.119937517 0.24672015 0.24672015 0.24672015
      0.0862073675 0.0381816328 0.0301605277 0.0799040571 0.0781134292
      0.171667367 0.24672015 0.24672015 0.209451929 0.133018851
      0.0572288148 0.0588479638 0.24672015 0.236094058 0.109068625
      0.130401522 0.216189459 0.24672015 0.124472558 0.0442143194
      0.04261408 0.0957596451 0.0574905686 0.111241154 0.166508704
      0.24672015</_>
    <_>
      0.0636115149 0.0663075596 0.0966035947 0.0787913129 0.224454522
      0.186307669 0.231461272 0.104743756 0.0757671148 0.144606829
      0.129769325 0.231461272 0.231461272 0.231461272 0.179804191
      0.121994413 0.0841071904 0.161200717 0.1477492 0.106051736
      0.231461272 0.0898939818 0.156872079 0.147342384 0.231461272
      0.203800321 0.202549204 0.187948883 0.138892397 0.231461272
      0.231461272 0.17437169 0.0895997211 0.0666146278 0.0820768252
      0.225882098</_>
    <_>
      0.0366107449 0.0609822683 0.0770595372 0.0828770325 0.294631213
      0.248294264 0.0443785451 0.0155983232 0.0345684253 0.112452075
      0.294631213 0.294631213 0.0829441324 0.274599165 0.163880721
      0.0421521179 0.0127114244 0.0530293211 0.0855327025 0.164316073
      0.211086467 0.0842332393 0.294631213 0.234644532 0.0541059114
      0.0388157219 0.0568129718 0.0954922587 0.248532727 0.294631213
      0.142919689 0.294631213 0.147670239 0.0450945199 0.0204111263
      0.0499132946</_>
    <_>
      0.303505152 0.188573942 0.0782533959 0.0979332924 0.124603778
      0.0386569686 0.0410183035 0.0649529919 0.303505152 0.303505152
      0.146478444 0.112246789 0.116873592 0.118439771 0.0523992926
      0.0502431244 0.017519502 0.303505152 0.303505152 0.133799031
      0.0524733514 0.105572954 0.110359766 0.0299936607 0.0494865142
      0.126238942 0.303505152 0.303505152 0.146729723 0.0823336244
      0.108548515 0.0938716009 0.0338884853 0.0640037656 0.0333871208
      0.303505152</_>
    <_>
      0.256277204 0.256277204 0.256277204 0.0294149425 0.0243847463
      0.0065985783 0.0233845636 0.039480295 0.144119129 0.256277204
      0.222414851 0.11711511 0.0761421397 0.14551504 0.0692661032
      0.197415173 0.160862729 0.20323211 0.256277204 0.256277204
      0.256277204 0.0733277574 0.0999889448 0.0397179909 0.0312425327
      0.05248316 0.164072767 0.256277204 0.256277204 0.256277204
      0.0877986699 0.165131465 0.0466609634 0.0647948384 0.0531499088
      0.152944788</_>
    <_>
      0.17097041 0.186951697 0.203726605 0.154975325 0.207905114
      0.0756494552 0.111310087 0.07010445 0.0991503298 0.190627202
      0.15868862 0.139511809 0.170012638 0.242139488 0.190723941
      0.208851144 0.101526707 0.136258394 0.242139488 0.242139488
      0.242139488 0.0978265479 0.13897109 0.0315450504 0.0371135548
      0.026404364 0.157773912 0.242139488 0.242139488 0.168609947
      0.121729217 0.242139488 0.0661230162 0.0573102646 0.0742824748
      0.22214523</_>
    <_>
      0.0360887237 0.0513508357 0.160875559 0.13757427 0.232775614
      0.115077622 0.0949017033 0.0430029109 0.030101547 0.0972256958
      0.148128659 0.232775614 0.169515118 0.232775614 0.232775614
      0.206501856 0.055325117 0.0912755132 0.217547774 0.232775614
      0.118317038 0.0512724333 0.168739036 0.0997341275 0.232775614
      0.204082519 0.159034565 0.232622102 0.232775614 0.232775614
      0.0951150954 0.212035567 0.139817834 0.228236422 0.0764455646
      0.146153182</_>
    <_>
      0.11491666 0.225695431 0.265438467 0.103329547 0.166003615
      0.0757089108 0.0904643536 0.109279998 0.141883954 0.135184288
      0.265438467 0.265438467 0.0454207473 0.0627576783 0.0461882055
      0.0672241673 0.0789006799 0.103883967 0.241628364 0.265438467
      0.265438467 0.154762283 0.265438467 0.0998061821 0.0867468119
      0.188592553 0.217245564 0.175326094 0.265438467 0.265438467
      0.0876853988 0.0601548925 0.033251591 0.0411124639 0.0563535467
      0.0822839662</_>
    <_>
      0.10816747 0.105277449 0.089978531 0.165692911 0.269473374
      0.150835156 0.0669342428 0.0333306007 0.0534407161 0.269473374
      0.167624563 0.055040665 0.113886192 0.269473374 0.0859624818
      0.0990387201 0.045429036 0.169624805 0.213314801 0.236549318
      0.242224991 0.141544729 0.269473374 0.0725550056 0.0644106418
      0.0312400945 0.104905933 0.269473374 0.243563995 0.134358376
      0.20919995 0.269473374 0.0767416432 0.0679223016 0.0498056114
      0.210388154</_>
    <_>
      0.128924042 0.179404512 0.233856127 0.101903453 0.184905738
      0.0666450709 0.104158968 0.111162469 0.0907197073 0.113562226
      0.0887549669 0.233856127 0.142833903 0.233856127 0.0622543469
      0.163428813 0.125305668 0.0770184919 0.173918903 0.205827162
      0.233856127 0.0771781504 0.176618382 0.0827602744 0.185710907
      0.211622939 0.152590856 0.197516412 0.221924588 0.233856127
      0.144217357 0.233856127 0.0626749098 0.219442323 0.223897129
      0.128193229</_>
    <_>
      0.121658541 0.245481417 0.26597017 0.11365965 0.114518151
      0.0473583154 0.019975625 0.0581634864 0.0993220955 0.26597017
      0.26597017 0.26597017 0.0661154613 0.141177505 0.0642029196
      0.0339968987 0.0637412518 0.173325777 0.185959071 0.26597017
      0.26597017 0.172376111 0.142812237 0.0565459058 0.0317296125
      0.143207729 0.175332785 0.26597017 0.26597017 0.26597017
      0.0877396315 0.112867303 0.0364150964 0.0166384056 0.0503874458
      0.123646118</_>
    <_>
      0.0638907775 0.096270822 0.245607585 0.268417388 0.288696498
      0.040666718 0.0411134213 0.018002674 0.0225791391 0.101872079
      0.288696498 0.288696498 0.1209701 0.218902186 0.0264813676
      0.0523575433 0.0368337296 0.0387139395 0.205341741 0.17667003
      0.288544983 0.185231909 0.288696498 0.0391753875 0.0273315348
      0.0512113497 0.100126602 0.174506411 0.288696498 0.288696498
      0.12748833 0.111722186 0.00960717909 0.00533209927 0.00720825279
      0.0517458133</_>
    <_>
      0.0909920186 0.174306124 0.271800399 0.160630077 0.102102228
      0.0984690562 0.107299924 0.0451567397 0.113131814 0.20469518
      0.113184854 0.239760906 0.0483323596 0.0929668695 0.148249865
      0.248836562 0.144715324 0.260388792 0.0957436562 0.166660279
      0.271800399 0.197195902 0.123678923 0.0802523121 0.141704857
      0.03037134 0.0855102614 0.16628179 0.223838463 0.271800399
      0.0695173293 0.0925424099 0.117328852 0.271800399 0.148602769
      0.205301493</_>
    <_>
      0.238350376 0.137745574 0.0711876079 0.171098188 0.201236114
      0.0339841209 0.112607464 0.129117578 0.238350376 0.238350376
      0.111598037 0.0938189104 0.184744567 0.238350376 0.0373074152
      0.146623909 0.0728165656 0.198638424 0.238350376 0.238350376
      0.127634257 0.1694915 0.168617412 0.0244448651 0.0774274245
      0.0993136168 0.206163138 0.238350376 0.238350376 0.18668136
      0.14462693 0.193824962 0.0435175933 0.0491189174 0.109679945
      0.231723204</_>
    <_>
      0.0766694844 0.0920134932 0.225439623 0.225439623 0.225439623
      0.047403533 0.0510667339 0.0660218745 0.063551411 0.118191078
      0.0905638039 0.186959565 0.19369255 0.225439623 0.0793283954
      0.099555783 0.100783363 0.172940627 0.160713628 0.225439623
      0.225439623 0.224597961 0.225439623 0.0728962049 0.191271216
      0.192225605 0.155227765 0.182255119 0.225439623 0.225439623
      0.190710932 0.192820936 0.0524502769 0.135212407 0.176636726
      0.153659374</_>
    <_>
      0.099028714 0.274725914 0.323022693 0.0909617767 0.0943512842
      0.0154949501 0.0297966264 0.0407765098 0.0574895665 0.139555022
      0.323022693 0.323022693 0.0953359008 0.119141087 0.0145237185
      0.0598524585 0.0603584051 0.083845906 0.132665738 0.323022693
      0.323022693 0.130135208 0.16622144 0.0390374511 0.0261545982
      0.0295118075 0.0810282528 0.109761238 0.323022693 0.323022693
      0.0917601734 0.0685845613 0.0104137026 0.0222799405 0.0264358111
      0.0479965284</_>
    <_>
      0.108550079 0.140855238 0.0813270509 0.0640067756 0.227248341
      0.134795591 0.227248341 0.129244328 0.157026827 0.129442438
      0.214739129 0.227248341 0.113473512 0.227248341 0.119631551
      0.201730177 0.0876894295 0.143835843 0.227248341 0.130098209
      0.0343388282 0.0356529914 0.182492033 0.113594018 0.212470084
      0.171316117 0.227248341 0.227248341 0.227248341 0.227248341
      0.101643503 0.186912462 0.0659177974 0.108406447 0.137387395
      0.227248341</_>
    <_>
      0.190474153 0.264418453 0.264418453 0.0883107036 0.104198113
      0.0565006174 0.0514522456 0.026984401 0.0981540754 0.174706161
      0.169371471 0.197991595 0.0461960398 0.179972455 0.147768065
      0.240530506 0.128157675 0.141310737 0.263821304 0.264418453
      0.264418453 0.132554427 0.176619709 0.057577312 0.0334330648
      0.024487149 0.129100546 0.203527942 0.216229007 0.264418453
      0.129229337 0.137931943 0.075950779 0.162618995 0.11061199
      0.138554782</_>
    <_>
      0.170470819 0.00532312179 0.0334687382 0.000656480493 0.05863446
      0.0425806455 0.208469242 0.296545357 0.296545357 0.198236302
      0.00031275599 0.00357675133 0.00328905694 0.0064109778
      0.0149123073 0.101640962 0.296545357 0.296545357 0.174570635
      0.00277465396 0.0166150052 0.000218826812 0.0340869427
      0.0295516588 0.174532443 0.296545357 0.296545357 0.296545357
      0.00081101089 0.00970391743 0.00986717176 0.013771357 0.0204399265
      0.112666368 0.296545357 0.296545357</_>
    <_>
      0.169534877 0.0799893662 0.086065203 0.14562811 0.283313423
      0.150261 0.128450185 0.0737534985 0.174776003 0.283313423
      0.0908249021 0.0537993163 0.110889107 0.171112314 0.0671391264
      0.0895613357 0.0733052418 0.283313423 0.228523895 0.116588242
      0.0855935365 0.157579258 0.283313423 0.0862839743 0.0764165521
      0.0440131798 0.17472209 0.283313423 0.13507092 0.0934862196
      0.234996811 0.283313423 0.0426366776 0.0358652808 0.0496711843
      0.273179501</_>
    <_>
      0.151499301 0.188840389 0.224043533 0.189064249 0.224043533
      0.0640504286 0.13851586 0.14234364 0.149869084 0.165816158
      0.12250638 0.175471246 0.153150395 0.213745922 0.121282846
      0.153714135 0.127179787 0.191775069 0.12066415 0.152369499
      0.198541656 0.113373637 0.210368723 0.0476813801 0.202418074
      0.224043533 0.144752666 0.224043533 0.224043533 0.172546595
      0.127154648 0.161944374 0.0418859199 0.0797638968 0.153967619
      0.224043533</_>
    <_>
      0.179437995 0.298141807 0.298141807 0.00362370186 0.00280457246
      0.00143684563 9.61936166e-05 0.00352226617 0.0514783487
      0.298141807 0.298141807 0.230257437 0.00975468196 0.0171542931
      0.0145669244 0.0586744286 0.128565654 0.279289663 0.242244229
      0.298141807 0.298141807 0.0130859073 0.0155413942 0.0119737191
      0.000801613845 0.00350538455 0.0775030777 0.208798945 0.298141807
      0.229749128 0.00646354491 0.00950631313 0.00690012239 0.0222593211
      0.058770556 0.150179625</_>
    <_>
      0.251140803 0.251140803 0.251140803 0.023506958 0.0652428344
      0.0683538541 0.0621347129 0.0173376519 0.117872864 0.251140803
      0.203088805 0.154925913 0.0386728309 0.146808252 0.199526906
      0.140835598 0.0529331677 0.192240909 0.251140803 0.251140803
      0.251140803 0.0799347758 0.110595845 0.0445577279 0.0342581123
      0.00803018827 0.144542634 0.251140803 0.251140803 0.251140803
      0.136966735 0.189187601 0.108574323 0.0669713765 0.0318599492
      0.19224821</_>
    <_>
      0.2522026 0.281682521 0.10422162 0.132632956 0.193398461
      0.0603251569 0.0930996314 0.0743390024 0.171982661 0.281682521
      0.281682521 0.118250251 0.014443608 0.0291277077 0.0245350022
      0.0310614761 0.0260279663 0.207748994 0.281682521 0.281682521
      0.0883248225 0.0816933662 0.166823938 0.0581469275 0.123855889
      0.0768626705 0.281682521 0.281682521 0.281682521 0.119164109
      0.0112339957 0.0176516138 0.0142267626 0.0159376394 0.0142522771
      0.207063064</_>
    <_>
      0.0907456055 0.206466973 0.23556605 0.0286134984 0.228248402
      0.131858557 0.231787384 0.138440564 0.112602323 0.0954147279
      0.209321886 0.23556605 0.0527624488 0.137498617 0.0542056747
      0.23556605 0.121168487 0.10259375 0.115850307 0.23556605
      0.23556605 0.0158260334 0.147291422 0.114785522 0.23556605
      0.181540877 0.130423442 0.165671274 0.23556605 0.23556605
      0.0400961451 0.0766754672 0.0487257168 0.23556605 0.186074615
      0.135242537</_>
    <_>
      0.210659951 0.230342731 0.230342731 0.122283205 0.230342731
      0.0455595665 0.11976698 0.090640977 0.128098801 0.229150206
      0.147393242 0.14423807 0.073983416 0.19900544 0.0300723705
      0.149122 0.159847304 0.230342731 0.216093838 0.217095926
      0.230342731 0.0920073912 0.230342731 0.0644659325 0.180603936
      0.130405068 0.142045841 0.230342731 0.171792924 0.172161371
      0.0655677393 0.139805481 0.0204078518 0.068521373 0.140334874
      0.230342731</_>
    <_>
      0.121699244 0.0495176837 0.114312947 0.0761650577 0.236304402
      0.148955792 0.214287654 0.114247359 0.157532111 0.236304402
      0.174721539 0.184953988 0.144725069 0.236304402 0.0396941118
      0.0879114196 0.0670623407 0.176342621 0.173188642 0.0623925664
      0.132719964 0.0833502561 0.236304402 0.13150014 0.173872367
      0.171658337 0.236304402 0.236304402 0.223151296 0.236304402
      0.17714563 0.236304402 0.0460303575 0.0754056349 0.0889123008
      0.214260042</_>
    <_>
      0.164650783 0.278860718 0.278860718 0.0230377614 0.0681426972
      0.0362069346 0.115161419 0.0628721789 0.0718346387 0.278860718
      0.278860718 0.177716985 0.0227157548 0.143250555 0.0925913528
      0.232337013 0.108404532 0.143688217 0.233296946 0.278860718
      0.278860718 0.0436035767 0.0933803618 0.0262378938 0.0775227323
      0.035470672 0.105064496 0.278860718 0.278860718 0.195321903
      0.0318666995 0.108993992 0.0562116802 0.110392101 0.0451259688
      0.138177961</_>
    <_>
      0.263515443 0.263515443 0.183315068 0.0405851528 0.0712195784
      0.0531736836 0.0941507891 0.0986685753 0.196409762 0.263515443
      0.194503888 0.133517012 0.0477643348 0.118282311 0.084120743
      0.136332586 0.131704345 0.195721477 0.263515443 0.263515443
      0.263515443 0.0458925515 0.0988185629 0.0575754419 0.0533692315
      0.0563496947 0.156065658 0.263515443 0.263515443 0.208499402
      0.0536107756 0.120944478 0.0768821761 0.0804091468 0.0810881779
      0.250554144</_>
    <_>
      0.147225335 0.264010042 0.264010042 0.0844300389 0.0868567079
      0.0412470102 0.0947122946 0.0552441366 0.0722560808 0.264010042
      0.264010042 0.24800092 0.0653393567 0.129211605 0.0688570663
      0.171298802 0.0896560401 0.136120155 0.264010042 0.264010042
      0.264010042 0.0962494314 0.121386647 0.042807363 0.119970784
      0.0902258679 0.130424038 0.264010042 0.264010042 0.264010042
      0.0556100197 0.0807062313 0.0322587192 0.0716919824 0.0487307422
      0.135642931</_>
    <_>
      0.0977291316 0.240617663 0.240617663 0.174876302 0.194976225
      0.0301670283 0.0462860018 0.0245489981 0.0450074226 0.138728961
      0.210866362 0.240617663 0.159775332 0.112619393 0.0334388092
      0.0524695739 0.0429394282 0.144923046 0.240617663 0.240617663
      0.230986819 0.154173374 0.240617663 0.0478790365 0.13212283
      0.0550663434 0.190488636 0.240617663 0.240617663 0.240617663
      0.16860269 0.120009281 0.0379552022 0.0518588684 0.151682675
      0.240617663</_>
    <_>
      0.198017344 0.299401879 0.299401879 0.0678189173 0.0542479306
      0.0424117036 0.0500832126 0.0318268798 0.0846456066 0.221867323
      0.299401879 0.262559384 0.10637331 0.101989672 0.135856733
      0.123879075 0.0698472783 0.137419909 0.160687357 0.299401879
      0.299401879 0.129986823 0.0995445698 0.0197653808 0.0266582053
      0.0182451569 0.0543351285 0.118206419 0.299401879 0.299401879
      0.159255341 0.0880242884 0.0604784414 0.0464285798 0.019294003
      0.0505239405</_>
    <_>
      0.0600766018 0.0901606828 0.080617547 0.156176642 0.249074325
      0.249074325 0.199946597 0.074598819 0.0386253037 0.249074325
      0.245499969 0.119169489 0.0864499509 0.249074325 0.169098422
      0.102660418 0.0255354587 0.14266485 0.11826089 0.227248073
      0.249074325 0.249074325 0.249074325 0.0867175311 0.0391172208
      0.0155753801 0.0466301069 0.249074325 0.249074325 0.249074325
      0.129894644 0.144616529 0.058328528 0.0152403116 0.00958293118
      0.163632169</_>
    <_>
      0.246263653 0.246263653 0.246263653 0.0736271217 0.0749277323
      0.0389887244 0.0481434949 0.108726755 0.227516383 0.206606716
      0.151331633 0.241850227 0.116305992 0.0608863123 0.0780404434
      0.0856261477 0.171109468 0.246263653 0.246263653 0.162817508
      0.239496931 0.056632787 0.086070545 0.0358957462 0.0454965197
      0.151245937 0.246263653 0.246263653 0.0903535187 0.186654374
      0.0678321943 0.0672278926 0.044158373 0.120260715 0.246263653
      0.246263653</_>
    <_>
      0.207351923 0.239061102 0.239061102 0.102469467 0.097278215
      0.00776193803 0.0230397247 0.0197984725 0.143483251 0.225803509
      0.192368999 0.21233049 0.0749225542 0.138286203 0.0515908524
      0.230346605 0.0864060968 0.196908191 0.139100343 0.239061102
      0.239061102 0.208563715 0.236684158 0.0557032079 0.0431949571
      0.0830872655 0.108600125 0.189874858 0.239061102 0.239061102
      0.171021432 0.239061102 0.061442066 0.118213505 0.0837255642
      0.143749073</_>
    <_>
      0.170367315 0.250285685 0.250285685 0.121588089 0.0966087729
      0.00983001292 0.00511630392 0.0194690246 0.0837939009 0.238960296
      0.220459551 0.213071004 0.142461136 0.227329195 0.0274478868
      0.108396091 0.05435206 0.170742869 0.123195313 0.238984317
      0.250285685 0.209865853 0.250285685 0.0584588796 0.0525488257
      0.0450075679 0.0793257058 0.151370689 0.247317463 0.250285685
      0.250285685 0.250285685 0.0447285101 0.0450774357 0.0309335012
      0.103660122</_>
    <_>
      0.0545907915 0.0443708375 0.236386463 0.177270249 0.236386463
      0.173090264 0.213113859 0.125000924 0.0677280426 0.0717693344
      0.0404711477 0.139648855 0.0673633292 0.236386463 0.236386463
      0.236386463 0.152920783 0.0976568013 0.0529662408 0.0458755493
      0.181488425 0.215183556 0.236386463 0.210628241 0.236386463
      0.0810914412 0.0484786741 0.0671037659 0.0876236781 0.236386463
      0.121508956 0.236386463 0.236386463 0.236386463 0.135292724
      0.0675871149</_>
    <_>
      0.058190953 0.0611665174 0.0630481765 0.137314305 0.253749102
      0.253749102 0.184427902 0.0415964387 0.0333060399 0.163789377
      0.101061955 0.157257318 0.253749102 0.253749102 0.0487471595
      0.151672781 0.104322813 0.110706426 0.253749102 0.166634485
      0.0982578695 0.0902269632 0.253749102 0.176454619 0.10633681
      0.0257365331 0.197184786 0.253749102 0.235251844 0.231878504
      0.178147942 0.202640489 0.0226446316 0.0634296536 0.0513482727
      0.230234995</_>
    <_>
      0.151097327 0.290606946 0.290606946 0.117343515 0.122378103
      0.0124284429 0.0396639071 0.0436583161 0.0684923753 0.232544184
      0.290606946 0.290606946 0.0888314992 0.251660317 0.0419376194
      0.112293236 0.0924677774 0.129521012 0.13808611 0.290606946
      0.290606946 0.110427953 0.100771129 0.0276962947 0.021147009
      0.017748924 0.0686777011 0.159215376 0.290606946 0.290606946
      0.0696917474 0.11727602 0.0172569398 0.0247113276 0.0111280233
      0.0626495406</_>
    <_>
      0.107546829 0.139388517 0.185245752 0.226785585 0.226785585
      0.0665603727 0.185090616 0.0894248486 0.0597534478 0.0804067627
      0.0880857185 0.183911815 0.203816801 0.226785585 0.0513878055
      0.0919000655 0.0574334301 0.0490222238 0.212286681 0.125805452
      0.122105464 0.0990712717 0.155670449 0.110700361 0.226785585
      0.203164205 0.168819427 0.226785585 0.226785585 0.226785585
      0.226785585 0.226785585 0.0960022956 0.226785585 0.191968396
      0.15336974</_>
    <_>
      0.0772009715 0.111301281 0.126838699 0.260570735 0.260570735
      0.0370796211 0.0178504437 0.0349336043 0.0602146238 0.151951388
      0.260570735 0.260570735 0.167043239 0.260570735 0.0470976233
      0.0165175144 0.0217373092 0.0931923315 0.198653996 0.153795302
      0.127507254 0.260570735 0.260570735 0.105291262 0.0674456283
      0.0709308833 0.126594648 0.175290465 0.260570735 0.260570735
      0.22176607 0.260570735 0.0841594115 0.0555737615 0.00964498427
      0.0925744474</_>
    <_>
      0.132509366 0.204201549 0.25821951 0.150598481 0.119717911
      0.0301892422 0.112475008 0.0751026422 0.129223391 0.196730465
      0.170432836 0.222771883 0.0588472933 0.140793711 0.0719787329
      0.25821951 0.20619148 0.246390343 0.081964083 0.210539982
      0.25821951 0.219152078 0.182802439 0.0491692163 0.0807158127
      0.0695424452 0.107426733 0.127380967 0.1888064 0.25821951
      0.083451435 0.123264804 0.0612682514 0.222586304 0.167304024
      0.190662876</_>
    <_>
      0.134791166 0.167670652 0.239844799 0.139500439 0.239844799
      0.105277397 0.0562596992 0.0260590501 0.0758815333 0.109021857
      0.108481072 0.239844799 0.239844799 0.239844799 0.148252532
      0.0800129622 0.0795769691 0.109707639 0.239844799 0.239844799
      0.195791334 0.0885159895 0.197835356 0.0957727432 0.116099954
      0.135619164 0.171597704 0.215622887 0.222490206 0.187282443
      0.133971348 0.239844799 0.0836102664 0.118715592 0.134181216
      0.191475049</_>
    <_>
      0.0794634521 0.189231485 0.259099901 0.133512169 0.217075855
      0.143651754 0.260666341 0.122099139 0.0767973512 0.0594457798
      0.247466668 0.263286442 0.157995597 0.184229225 0.0739506632
      0.22774379 0.135393694 0.0606677197 0.0962288231 0.100869127
      0.139299229 0.0505933799 0.148357287 0.139804408 0.263286442
      0.200093433 0.11661543 0.0519889295 0.122898899 0.238115728
      0.0611580946 0.0965892151 0.0793424919 0.263286442 0.263286442
      0.0548827611</_>
    <_>
      0.143809676 0.130721539 0.218065262 0.182227269 0.220926911
      0.09194462 0.159682497 0.173147038 0.169880182 0.0687343851
      0.0457507856 0.132721111 0.12083292 0.220926911 0.164147809
      0.200823739 0.131463304 0.0978844762 0.124480918 0.0610329993
      0.156568483 0.137075186 0.220926911 0.0860488787 0.188235104
      0.220926911 0.220926911 0.124918297 0.105830535 0.220926911
      0.192503691 0.220926911 0.119952783 0.192606568 0.220926911
      0.205235571</_>
    <_>
      0.152130455 0.244915083 0.244915083 0.202599719 0.244915083
      0.0343745835 0.045610927 0.0220713634 0.0685975403 0.228606805
      0.244915083 0.244915083 0.227991462 0.244915083 0.113315433
      0.177964225 0.0825971141 0.145502299 0.0706772283 0.132256806
      0.12760134 0.244915083 0.244915083 0.160725728 0.0525923334
      0.0280107111 0.044358179 0.186485529 0.23833321 0.146014512
      0.121565372 0.19762294 0.0668540671 0.0893946663 0.0596771426
      0.124172591</_>
    <_>
      0.163626 0.243206531 0.243206531 0.046657376 0.133454069
      0.0469925292 0.0496108048 0.0689706728 0.203883097 0.243206531
      0.154853389 0.243206531 0.0693614259 0.243206531 0.0887277648
      0.099029161 0.0758441091 0.243206531 0.209467366 0.199078396
      0.243206531 0.0455709882 0.140541852 0.0451082438 0.0436350405
      0.111331493 0.243206531 0.243206531 0.0919969678 0.195720777
      0.0700317919 0.243206531 0.0728746727 0.0732633471 0.113685809
      0.243206531</_>
    <_>
      0.24013947 0.228607312 0.0694320798 0.0176739972 0.0495769605
      0.0276739374 0.105682857 0.152092814 0.24013947 0.196811035
      0.123405837 0.0367531106 0.00560216792 0.0881339386 0.0695482567
      0.233649433 0.24013947 0.24013947 0.24013947 0.24013947
      0.163579285 0.0743786618 0.0847530738 0.0367338285 0.0721701607
      0.0844975188 0.237407401 0.24013947 0.238052592 0.109261692
      0.037350174 0.229792312 0.096927084 0.186631277 0.205514923
      0.24013947</_>
    <_>
      0.259271443 0.259271443 0.14685832 0.0740342364 0.0634842068
      0.0151974624 0.0121158445 0.0172104556 0.0927502736 0.259271443
      0.259271443 0.180737138 0.228749305 0.173538551 0.0158627704
      0.0121276388 0.0320489332 0.140211061 0.259271443 0.259271443
      0.24684462 0.139592081 0.143628269 0.0501091816 0.0195281636
      0.0148450844 0.162341088 0.259271443 0.259271443 0.233106777
      0.185797274 0.128321841 0.031156661 0.0131507218 0.0114205088
      0.214412913</_>
    <_>
      0.0266211852 0.0595550649 0.26726079 0.253742695 0.203702182
      0.0596109889 0.028087303 0.00798231922 0.0408545323 0.04452499
      0.0459924676 0.26726079 0.26726079 0.26726079 0.0691938177
      0.0212263335 0.0118600205 0.0763693079 0.0617145263 0.103415102
      0.26726079 0.192882955 0.26726079 0.26726079 0.193487689
      0.0201214552 0.0649015456 0.0777161047 0.106259689 0.26726079
      0.26726079 0.26726079 0.148882955 0.111809343 0.0153270597
      0.0743722841</_>
    <_>
      0.263320506 0.238042995 0.0540287681 0.144182116 0.219662488
      0.0621292666 0.021923814 0.0661642477 0.263320506 0.263320506
      0.155985862 0.096235767 0.17232646 0.193744659 0.0654707253
      0.0310709346 0.0635680631 0.215188906 0.263320506 0.159782633
      0.0483711921 0.112807013 0.195985988 0.0494786166 0.0121607361
      0.144896671 0.263320506 0.263320506 0.201403901 0.10678836
      0.12584807 0.17125535 0.0513602458 0.0198522378 0.124397464
      0.263320506</_>
    <_>
      0.0371405147 0.140409425 0.300308049 0.182271063 0.257263869
      0.00381469447 0.00165205204 0.00605980307 0.0372018591
      0.0821711347 0.216387063 0.300308049 0.192677006 0.273389786
      0.0363523848 0.0629775077 0.0235523134 0.0683556125 0.0669103265
      0.187630087 0.300308049 0.163743228 0.275782704 0.0150482543
      0.0314196385 0.0168744046 0.0304028597 0.0123420842 0.111982033
      0.300308049 0.300308049 0.300308049 0.00626099762 0.00462889206
      0.000159127638 0.0163599644</_>
    <_>
      0.0742349774 0.0806392282 0.252091974 0.252091974 0.252091974
      0.0840221569 0.0896844715 0.0488833524 0.0579209924 0.0851080939
      0.0924646929 0.252091974 0.185168877 0.240554601 0.0984074026
      0.130664885 0.101255618 0.0823825076 0.0961610079 0.0899802744
      0.245353177 0.183303401 0.252091974 0.157191202 0.252091974
      0.203170493 0.0964116231 0.0664302036 0.176261261 0.252091974
      0.188085839 0.182001993 0.0952773243 0.202386573 0.145375684
      0.0802780762</_>
    <_>
      0.190013736 0.165696532 0.17637381 0.0935636014 0.163521931
      0.0554640591 0.0800634995 0.095122546 0.162285447 0.218050271
      0.19245711 0.218050271 0.209846571 0.198232234 0.100516111
      0.0962065533 0.167439997 0.210397467 0.218050271 0.215292767
      0.105711527 0.0503939837 0.119278967 0.0463235788 0.129474193
      0.172690049 0.218050271 0.218050271 0.218050271 0.207835644
      0.101482198 0.165392607 0.0774864927 0.143209741 0.218050271
      0.218050271</_>
    <_>
      0.261615694 0.266725868 0.230104879 0.0481285639 0.16601342
      0.0112905288 0.0671258792 0.0828755274 0.140060365 0.266725868
      0.266725868 0.175060555 0.0447334647 0.0397972763 0.0103739034
      0.0185534321 0.0163297188 0.197987482 0.266725868 0.266725868
      0.188943848 0.0293675698 0.152441099 0.013027532 0.115995534
      0.155468732 0.243141204 0.266725868 0.266725868 0.175465181
      0.0378358439 0.0327514708 0.00971303508 0.0169957858 0.0193650052
      0.228115752</_>
    <_>
      0.234715059 0.234715059 0.199161068 0.0205077343 0.106732637
      0.0188526716 0.0666230544 0.112067975 0.115123972 0.234715059
      0.212265551 0.222024307 0.0466736741 0.100315005 0.00447088853
      0.0979075655 0.165799215 0.234715059 0.234715059 0.234715059
      0.232926786 0.0271129832 0.146707579 0.0399170853 0.132824466
      0.178595722 0.177113891 0.234715059 0.234715059 0.234715059
      0.0694984421 0.114996627 0.00705376454 0.0965851769 0.185803071
      0.234715059</_>
    <_>
      0.147678211 0.171650276 0.216050848 0.138999298 0.14049603
      0.0414042808 0.216050848 0.136245698 0.119602405 0.126463532
      0.21545507 0.216050848 0.0474051051 0.216050848 0.0628396347
      0.169242397 0.197053567 0.158315599 0.204035118 0.216050848
      0.216050848 0.120605305 0.151688442 0.0290224254 0.180267304
      0.177068338 0.151238739 0.13367556 0.198555022 0.206245497
      0.0871455446 0.216050848 0.0426111445 0.158217981 0.216050848
      0.193213955</_>
    <_>
      0.217916176 0.177576035 0.240992546 0.159578741 0.0676357448
      0.0344298556 0.155831113 0.12150608 0.155416951 0.169241667
      0.147654995 0.168201879 0.0488118418 0.127747566 0.120570175
      0.240992546 0.197878525 0.148132682 0.115731917 0.148693487
      0.240992546 0.240992546 0.159470588 0.0489255749 0.193392962
      0.0809243023 0.0915291235 0.182750866 0.236281797 0.240992546
      0.053989023 0.12173903 0.163106322 0.240992546 0.174631551
      0.151284963</_>
    <_>
      0.123086795 0.170310751 0.172105432 0.132479504 0.217750326
      0.116298318 0.157265723 0.0278045759 0.069701992 0.227491722
      0.227491722 0.227491722 0.150965661 0.138637602 0.110232174
      0.130776927 0.0705759525 0.162078872 0.227491722 0.227491722
      0.173731834 0.138513699 0.180402055 0.112704106 0.21289137
      0.118588351 0.203661531 0.227491722 0.227491722 0.227491722
      0.179652885 0.111885257 0.0797647089 0.109214447 0.101760864
      0.172164798</_>
    <_>
      0.0952998921 0.277874291 0.277874291 0.130048349 0.075859122
      0.0109763425 0.0357411839 0.0345937498 0.0511323847 0.229252651
      0.277874291 0.277874291 0.192203894 0.138371453 0.0140392873
      0.10847377 0.0922882333 0.128215462 0.144972607 0.277874291
      0.277874291 0.153674528 0.142701522 0.0342602395 0.0176889785
      0.0399116464 0.0814849958 0.277874291 0.277874291 0.277874291
      0.133082896 0.0850886405 0.0163145848 0.0177970827 0.0423811078
      0.133137435</_>
    <_>
      0.132324368 0.246275499 0.246275499 0.164992675 0.238272175
      0.0668531284 0.0574356094 0.0505687334 0.0811563805 0.187935054
      0.246275499 0.246275499 0.114317544 0.231061369 0.0373489335
      0.02880615 0.0180170946 0.120370112 0.222299382 0.246275499
      0.246214688 0.111022398 0.198185846 0.0778838173 0.0932240635
      0.0617472194 0.108769834 0.127324671 0.246275499 0.246275499
      0.246275499 0.246275499 0.0468508303 0.0339159183 0.00305198622
      0.053216476</_>
    <_>
      0.192712978 0.262312293 0.239238858 0.00971404836 0.154807314
      0.016889248 0.0383888334 0.0039886306 0.0700918883 0.262312293
      0.262312293 0.260522902 0.0983127505 0.175125718 0.0259903632
      0.0663492382 0.0518523641 0.230541855 0.139892593 0.262312293
      0.245584145 0.0356200673 0.262312293 0.121401317 0.204103798
      0.064812839 0.0686355233 0.139297292 0.262312293 0.262312293
      0.145068571 0.165949807 0.012449027 0.0435468778 0.0237612408
      0.0664722249</_>
    <_>
      0.230404407 0.268778533 0.191986054 0.00732341176 0.0188729335
      4.22742851e-05 0.00841270387 0.0159894414 0.138148829 0.268778533
      0.268778533 0.229795426 0.0161685254 0.0272549242 0.00825393666
      0.0968506336 0.063342616 0.268778533 0.268778533 0.268778533
      0.254694939 0.0195192415 0.0536045879 4.87780162e-05 0.0426439196
      0.102259912 0.213504955 0.268778533 0.268778533 0.243361413
      0.0157789644 0.0256386511 0.00513851177 0.0539115407 0.0266279224
      0.229314074</_>
    <_>
      0.0903787017 0.120178856 0.189086273 0.144191533 0.22178486
      0.138522863 0.267995864 0.265657514 0.0795703605 0.149204969
      0.0446028076 0.0335820653 0.0327004828 0.104055457 0.15019092
      0.267995864 0.148188829 0.161967948 0.086650975 0.0365942121
      0.0538757555 0.0646655932 0.148852468 0.100323558 0.267995864
      0.267995864 0.164158285 0.267995864 0.105667509 0.0719982013
      0.0410455763 0.141310215 0.117321588 0.251515925 0.209276661
      0.267995864</_>
    <_>
      0.237903878 0.237903878 0.193796262 0.0753488913 0.129799992
      0.0753821209 0.0993180424 0.0785625428 0.115264162 0.237903878
      0.237903878 0.212238818 0.114447318 0.117962562 0.0434496216
      0.0992401615 0.0966679007 0.197820455 0.229010329 0.20932588
      0.0950713381 0.0388610139 0.125296071 0.11833211 0.237903878
      0.237903878 0.237903878 0.237903878 0.237903878 0.237903878
      0.118911102 0.0803182572 0.0219926853 0.05124541 0.0909280777
      0.189204097</_>
    <_>
      0.227748349 0.20752424 0.227748349 0.0904105455 0.227748349
      0.0710067153 0.212352097 0.162870482 0.227748349 0.159728736
      0.135791764 0.0798600093 0.0662874803 0.222143546 0.0983484462
      0.151225075 0.0993594602 0.115482926 0.176858678 0.113009475
      0.0592460446 0.0321900025 0.14848946 0.0929489285 0.227748349
      0.177897051 0.170140535 0.227748349 0.13951233 0.105134584
      0.0555792078 0.222118378 0.174932107 0.227748349 0.227748349
      0.204011574</_>
    <_>
      0.157196581 0.254808873 0.254808873 0.0491734594 0.123262472 0.
      0.0152208498 0.0262536351 0.110827357 0.244842067 0.244922429
      0.254808873 0.0827529207 0.227459356 0.0338126682 0.120642796
      0.119051792 0.19910036 0.104078136 0.254808873 0.254808873
      0.0907671303 0.247609228 0. 0.0643496737 0.0699501336 0.107073091
      0.153719813 0.254808873 0.254808873 0.106520228 0.254808873
      0.0163287558 0.103468873 0.110757567 0.124010436</_>
    <_>
      0.108346522 0.143880457 0.254880935 0.118371628 0.211313561
      0.0500764512 0.081301488 0.0420342833 0.0861788318 0.0890821293
      0.20763734 0.254880935 0.231490418 0.201356232 0.0325028859
      0.0490476079 0.0539293215 0.0430202708 0.254880935 0.254880935
      0.254880935 0.0796084851 0.212522492 0.077290684 0.175531909
      0.134731323 0.224249527 0.168671921 0.254880935 0.254880935
      0.170634523 0.19288452 0.0459736809 0.0874530002 0.0843225494
      0.107292578</_>
    <_>
      0.134634629 0.078587532 0.234786898 0.168926358 0.234786898
      0.0548069216 0.097013317 0.100334615 0.167835802 0.106293194
      0.0618949533 0.234786898 0.19741632 0.234786898 0.149735019
      0.234786898 0.1573506 0.156892553 0.178708091 0.110861324
      0.161477998 0.0940173715 0.234786898 0.0422141813 0.0996405855
      0.167312488 0.234786898 0.211735502 0.137171432 0.234786898
      0.188011855 0.234786898 0.0542975031 0.0695248842 0.0803114474
      0.200172529</_>
    <_>
      0.15711455 0.0972050652 0.177534804 0.159904912 0.273939937
      0.0739815012 0.13018091 0.0670908615 0.153855696 0.152577594
      0.0591378361 0.023473328 0.0135103054 0.273939937 0.0860685632
      0.135544226 0.0788073614 0.154614717 0.132495791 0.00775151933
      0.0541276224 0.0681679994 0.273939937 0.118477829 0.238892391
      0.173170283 0.273939937 0.273939937 0.139638647 0.0173073672
      0.00499639008 0.273939937 0.120379262 0.191540599 0.222373277
      0.273939937</_>
    <_>
      0.0811103955 0.142770156 0.287259549 0.120763652 0.0757068619
      0.0219772365 0.180412948 0.127073735 0.107033983 0.101755746
      0.143924609 0.287259549 0.0694449618 0.108902276 0.0869186297
      0.287259549 0.247650206 0.172347292 0.0449907444 0.182802737
      0.287259549 0.227481887 0.237899691 0.0362775624 0.124768622
      0.0873961151 0.0712992102 0.0654294416 0.13642852 0.287259549
      0.0807501301 0.06995444 0.0477561094 0.287259549 0.154356524
      0.118165441</_>
    <_>
      0.15190962 0.133414328 0.139641583 0.106450766 0.258310348
      0.228452146 0.256939679 0.122725613 0.121356048 0.133926794
      0.0545405224 0.0913787112 0.0538097732 0.258310348 0.162682638
      0.17127426 0.0906584263 0.16412954 0.106049739 0.0307963267
      0.0771965832 0.0472366177 0.258310348 0.149595186 0.258310348
      0.241333127 0.178144559 0.258310348 0.0477087572 0.100503758
      0.0491508693 0.225380763 0.0613743104 0.110820957 0.199686646
      0.258310348</_>
    <_>
      0.0865359679 0.140092954 0.23903054 0.0383176431 0.189149752
      0.229035258 0.2508744 0.0869347751 0.10375236 0.125927866
      0.2508744 0.2508744 0.0716652647 0.0641311407 0.0656757131
      0.1559297 0.0781777874 0.115547806 0.11557886 0.231531769
      0.2508744 0.0500844121 0.115657315 0.202259019 0.2508744
      0.190944031 0.142392173 0.185663044 0.2508744 0.2508744
      0.0525169894 0.0385193452 0.0692048594 0.165700406 0.138990924
      0.143817633</_>
    <_>
      0.255782217 0.255782217 0.251808643 0.0366098434 0.0387175754
      0.0222647004 0.0352753811 0.0163388215 0.212558404 0.255782217
      0.255782217 0.231394053 0.0422465988 0.0975767449 0.0343966149
      0.0624261834 0.0778283477 0.255782217 0.255782217 0.207812011
      0.173815176 0.036105115 0.0554522723 0.0439770445 0.102778487
      0.0679315403 0.255782217 0.255782217 0.255782217 0.255782217
      0.0337748565 0.0535938777 0.0137428474 0.017375743 0.0143735996
      0.232762083</_>
    <_>
      0.0847350061 0.0941070318 0.209385961 0.21069698 0.253216714
      0.0790614635 0.0782633126 0.058049269 0.0825018212 0.0680261999
      0.12918663 0.253216714 0.253216714 0.253216714 0.0351055898
      0.0311015807 0.0538239814 0.0460476503 0.183438361 0.190357745
      0.215639234 0.115368828 0.253216714 0.101654992 0.206455544
      0.130359843 0.175351605 0.14057526 0.253216714 0.253216714
      0.221179619 0.253216714 0.0414994098 0.087827459 0.0913149044
      0.110952444</_>
    <_>
      0.0941359177 0.262103289 0.262103289 0.0491827726 0.0683900788
      0.0393422693 0.0429021567 0.0275066588 0.0541261658 0.262103289
      0.262103289 0.262103289 0.0825003535 0.217519894 0.0992477685
      0.148402616 0.138724193 0.2362836 0.0511861779 0.186284646
      0.262103289 0.262103289 0.179248184 0.0514126904 0.0719039142
      0.0463535376 0.0423755385 0.155695543 0.262103289 0.262103289
      0.0724400654 0.149468482 0.0918897912 0.140020415 0.109903857
      0.147745192</_>
    <_>
      0.195169672 0.168219447 0.12007156 0.183650553 0.24595651
      0.0372797549 0.203388691 0.17781727 0.118629962 0.129287571
      0.215303868 0.252436191 0.0985539779 0.103479005 0.0523274429
      0.252436191 0.208643273 0.120704576 0.0992143303 0.0730439648
      0.125751957 0.252436191 0.252436191 0.0445137955 0.150413066
      0.13766937 0.0838434622 0.110259004 0.188346595 0.252436191
      0.107997738 0.173898548 0.0341813155 0.226750299 0.18029581
      0.12182527</_>
    <_>
      0.0810871273 0.207070947 0.240730092 0.197319984 0.175691068
      0.0480675623 0.0274871979 0.01423549 0.077600278 0.120265074
      0.176589638 0.250292838 0.250292838 0.250292838 0.0668524429
      0.0534928255 0.0913475305 0.122933097 0.109358922 0.163638145
      0.250292838 0.250292838 0.250292838 0.0942908227 0.0835191682
      0.0974107906 0.12749365 0.170538232 0.250292838 0.250292838
      0.250292838 0.176855177 0.0497655906 0.0492960438 0.0825007409
      0.135376588</_>
    <_>
      0.211652413 0.200921834 0.257710248 0.196263164 0.244665384
      0.0722838938 0.088879317 0.0832027122 0.119578242 0.257710248
      0.257710248 0.153876141 0.0650474951 0.103298061 0.00868962985
      0.0251152366 0.0528073758 0.164840057 0.257710248 0.127981111
      0.0873518586 0.117837429 0.172054887 0.0983563215 0.186746061
      0.229059383 0.239310756 0.257710248 0.257710248 0.100615576
      0.0414975397 0.0585276447 0.0111391135 0.0310501214 0.0850871503
      0.257710248</_>
    <_>
      0.0633196384 0.108120009 0.0743538588 0.0800592974 0.227670789
      0.182969704 0.206109196 0.145524666 0.107890502 0.091994144
      0.0927256346 0.0601351857 0.102597103 0.227670789 0.227670789
      0.227670789 0.227670789 0.170681655 0.109556049 0.0237820633
      0.0133320205 0.0256474651 0.141947329 0.158517361 0.227670789
      0.227670789 0.227670789 0.227670789 0.0870629624 0.0949351192
      0.15051204 0.208054706 0.217879966 0.227670789 0.20522128
      0.227670789</_>
    <_>
      0.0537820458 0.0936777815 0.275475264 0.114164136 0.25237909
      0.0625969619 0.0196927786 0.0111785457 0.0605165027 0.0394079275
      0.153071553 0.307061315 0.171186239 0.278985113 0.00769094424
      0.00694395835 0.00360699138 0.0317672007 0.12833178 0.237537995
      0.307061315 0.0528707914 0.224511743 0.160163686 0.149514928
      0.083201617 0.145613506 0.0616832823 0.289196551 0.307061315
      0.224188119 0.25583005 0.0199210793 0.00660851831 0.00382031477
      0.0511195175</_>
    <_>
      0.16845049 0.163063377 0.221553043 0.0768476725 0.162207097
      0.0907746106 0.119901538 0.113123886 0.113936462 0.167212069
      0.180569053 0.139582232 0.0778352022 0.209202141 0.185237244
      0.221553043 0.18376188 0.153575867 0.221553043 0.221553043
      0.221553043 0.0745418295 0.158581913 0.102141097 0.193303794
      0.176249027 0.189236134 0.221553043 0.221553043 0.190087005
      0.0711168572 0.102812253 0.0825871453 0.141862124 0.179650649
      0.201769099</_>
    <_>
      0.144007191 0.0973094627 0.211060569 0.151485726 0.173798874
      0.0592942759 0.226474836 0.207678512 0.141933948 0.184864074
      0.122878671 0.103705414 0.0422970802 0.167240188 0.0859522596
      0.226474836 0.226474836 0.196414918 0.0978556424 0.0622092076
      0.131878406 0.126647413 0.226474836 0.121261708 0.226474836
      0.20120427 0.108401448 0.225305259 0.076999709 0.124709919
      0.100227632 0.226474836 0.104070626 0.226474836 0.226474836
      0.223653764</_>
    <_>
      0.102771863 0.129543737 0.226332024 0.175180912 0.226332024
      0.0830464438 0.210894614 0.183943659 0.0969586894 0.124604851
      0.116547965 0.0871577412 0.06321989 0.123638876 0.1365529
      0.226332024 0.221135259 0.1679129 0.174793243 0.226332024
      0.174817875 0.117885977 0.226332024 0.138834462 0.212202966
      0.14196901 0.118660316 0.226332024 0.226332024 0.163165092
      0.0796944946 0.142271981 0.119886734 0.156970799 0.133324951
      0.226332024</_>
    <_>
      0.0954870433 0.0769606829 0.114654176 0.0445334129 0.235052735
      0.0726536438 0.243765384 0.181002513 0.124717459 0.114108019
      0.164917156 0.239001065 0.0602129884 0.226439789 0.0163827669
      0.0423337035 0.108024873 0.13127932 0.241096407 0.127360076
      0.138237074 0.0164560732 0.106204242 0.0435167104 0.243765384
      0.243765384 0.243765384 0.243765384 0.243765384 0.243765384
      0.0756163597 0.243765384 0.0348647088 0.0736849084 0.14590022
      0.243765384</_>
    <_>
      0.150012553 0.129023194 0.222403973 0.12963587 0.240716249
      0.100780569 0.151493207 0.129700646 0.206893533 0.120836489
      0.0498776697 0.0633785203 0.0982965678 0.240716249 0.208248064
      0.240716249 0.175572261 0.167869151 0.188313678 0.0526621751
      0.0892466977 0.113752097 0.223279506 0.105723135 0.162949041
      0.146776438 0.240716249 0.240716249 0.121549331 0.0976895466
      0.146346822 0.240716249 0.136629507 0.137432724 0.0955624431
      0.240716249</_>
    <_>
      0.161705017 0.262330741 0.270936489 0.140535802 0.15023756
      0.019536227 0.00491411425 0.0230564717 0.113109261 0.270936489
      0.270936489 0.270936489 0.0755714625 0.120403767 0.0315987207
      0.0398544259 0.1108239 0.179295212 0.0879336521 0.172035769
      0.270936489 0.270936489 0.270936489 0.172286019 0.0837256014
      0.0413471535 0.0800373182 0.0846457034 0.144655913 0.270936489
      0.223921239 0.154807672 0.0273572598 0.0213230848 0.0527935214
      0.0589426234</_>
    <_>
      0.0678592771 0.058209721 0.153085813 0.225426629 0.268893093
      0.183908209 0.183534548 0.0995755494 0.0988263488 0.252067775
      0.107196301 0.13133423 0.143100306 0.268893093 0.0594021603
      0.0527932905 0.0589044876 0.186184853 0.0860211104 0.0467613041
      0.0355151035 0.168004096 0.268893093 0.147355571 0.220619306
      0.16108337 0.158534154 0.268893093 0.128841445 0.060713686
      0.208301902 0.268893093 0.067384854 0.0647110865 0.0980154872
      0.258075684</_>
    <_>
      0.0987375528 0.0403775759 0.125751704 0.0447345562 0.112655669
      0.133666247 0.196833819 0.246153101 0.167577758 0.14940232
      0.246153101 0.246153101 0.117349625 0.121605366 0.0518583246
      0.0893248916 0.153151214 0.151598126 0.149008229 0.0341602676
      0.089465946 0.0407684222 0.088962622 0.110819496 0.235915825
      0.246153101 0.246153101 0.19447203 0.183238938 0.246153101
      0.113369927 0.201564148 0.190176651 0.210838497 0.201503977
      0.210807666</_>
    <_>
      0.0918912515 0.107105248 0.22449626 0.221720353 0.254642963
      0.155576631 0.152072713 0.10256891 0.0740270019 0.0614795052
      0.0625166744 0.201792464 0.239857197 0.254642963 0.225869611
      0.181406826 0.0967894346 0.0512744524 0.11805176 0.116297446
      0.242002413 0.168256596 0.254642963 0.116579629 0.130037516
      0.0768637732 0.0919211209 0.0808752626 0.124956697 0.254642963
      0.254642963 0.254642963 0.145917833 0.116236337 0.0692098662
      0.0527916141</_>
    <_>
      0.173715487 0.252512246 0.252512246 0.0672979578 0.112014592
      0.0698980987 0.165208369 0.100272469 0.163361087 0.130048707
      0.0775369182 0.0355556011 0.011462424 0.23451364 0.219191805
      0.252512246 0.233565629 0.21203886 0.07326518 0.0606497787
      0.0953988433 0.0376157872 0.116260417 0.106619865 0.252512246
      0.252512246 0.11265146 0.145685896 0.147014678 0.179469779
      0.119399711 0.252512246 0.134715721 0.252512246 0.144238964
      0.150654003</_>
    <_>
      0.171746507 0.271069109 0.271069109 0.0511134826 0.0518677682
      0.0135561218 0.0190274082 0.00830819551 0.0685826093 0.2181779
      0.271069109 0.271069109 0.109962441 0.12542291 0.0331933461
      0.0336485393 0.025123613 0.116267003 0.271069109 0.271069109
      0.271069109 0.0686745942 0.128165975 0.0367434137 0.079320468
      0.0349597968 0.172647908 0.213601828 0.271069109 0.271069109
      0.172645628 0.192501292 0.0501330309 0.0747290403 0.0462898426
      0.14668256</_>
    <_>
      0.0944067016 0.263173014 0.235347316 0.0190130305 0.0676214397
      0.0744243935 0.0961644575 0.0321191549 0.0505242459 0.101913266
      0.263173014 0.263173014 0.229466587 0.205932483 0.0402725302
      0.05163664 0.0277117025 0.0881965756 0.248601109 0.263173014
      0.263173014 0.0200822707 0.0970024168 0.0932623222 0.182016671
      0.0826455057 0.159994245 0.10343726 0.263173014 0.263173014
      0.263173014 0.263173014 0.0317779444 0.0537172966 0.0262268949
      0.0835782364</_>
    <_>
      0.157983422 0.169932649 0.193571091 0.176826328 0.176458672
      0.125109091 0.0941403583 0.0910635293 0.106431305 0.138158321
      0.194585487 0.215460315 0.103892662 0.18389906 0.177619845
      0.219061419 0.147883266 0.154385969 0.133077085 0.119386941
      0.193171889 0.219061419 0.219061419 0.149157658 0.184879407
      0.134336457 0.111876808 0.208941564 0.219061419 0.219061419
      0.0738544688 0.111804277 0.128226236 0.211930454 0.167071536
      0.166238949</_>
    <_>
      0.124391027 0.255807489 0.255807489 0.173893437 0.166397855
      0.0509399623 0.021765912 0.00576170348 0.0892584175 0.152177304
      0.255807489 0.255807489 0.159057647 0.1799867 0.0292712878
      0.020204043 0.0110000717 0.102246769 0.208449632 0.255807489
      0.255807489 0.150167853 0.167851761 0.0640651137 0.0702737644
      0.0384656303 0.156678274 0.147278592 0.255807489 0.255807489
      0.255807489 0.255807489 0.0618982278 0.0102500254 0.0396658853
      0.0972611085</_>
    <_>
      0.241979674 0.199350774 0.064812474 0.0281911772 0.077136822
      0.0697044358 0.105967671 0.139867604 0.241979674 0.241979674
      0.217734382 0.113164917 0.054968901 0.0888805985 0.0257685278
      0.13964203 0.111824721 0.241979674 0.241979674 0.235151038
      0.0922194123 0.032574784 0.0756186545 0.0785266981 0.180518642
      0.179975972 0.241979674 0.241979674 0.241979674 0.208336338
      0.071206145 0.092581138 0.0190431345 0.209660053 0.19329372
      0.241979674</_>
    <_>
      0.0599375591 0.0771617591 0.114842735 0.156023666 0.234320834
      0.12001422 0.108601183 0.142248303 0.0724445134 0.0492747463
      0.0854782686 0.122965053 0.0985660702 0.234320834 0.207264438
      0.169681117 0.162670031 0.0953253284 0.217437595 0.213716909
      0.121228538 0.0925494581 0.219479978 0.093488194 0.234320834
      0.234320834 0.234320834 0.210824862 0.234320834 0.186524943
      0.0991216749 0.234320834 0.214976341 0.161236554 0.0968886167
      0.169987574</_>
    <_>
      0.229692012 0.229692012 0.229692012 0.108323112 0.172944427
      0.0590089075 0.0357834697 0.0227506459 0.16065675 0.190409735
      0.109603569 0.142525628 0.0558413193 0.218160138 0.180587098
      0.229692012 0.0983463526 0.206319332 0.0991067365 0.162451282
      0.216663256 0.108633325 0.229692012 0.191293955 0.155709639
      0.135109469 0.105294958 0.127368629 0.211705893 0.229692012
      0.144745171 0.229692012 0.164147362 0.180489942 0.105104648
      0.117545366</_>
    <_>
      0.0859597996 0.0691193193 0.262471974 0.262471974 0.134222165
      0.0151886735 0.0753478706 0.129081398 0.106573828 0.142788067
      0.123809054 0.262471974 0.17382212 0.14130342 0.0913798809
      0.262471974 0.2489876 0.164992318 0.058987055 0.0775240064
      0.262471974 0.262471974 0.241974086 0.0439890996 0.109598771
      0.103159003 0.0706997216 0.0790113583 0.0833920389 0.262471974
      0.2234945 0.122430637 0.0523739681 0.20437035 0.203099653
      0.0776971057</_>
    <_>
      0.183429584 0.200375885 0.114897266 0.0772131905 0.125431463
      0.0191821102 0.112372749 0.102403924 0.205479577 0.158998013
      0.222786173 0.239399269 0.169675589 0.144998372 0.0546769388
      0.161387488 0.182710543 0.233373255 0.168215469 0.239399269
      0.128203928 0.0839054734 0.239399269 0.163655654 0.156844199
      0.157383457 0.187300459 0.15290992 0.239399269 0.239399269
      0.068761833 0.11253681 0.0170980114 0.10632173 0.197188661
      0.201937675</_>
    <_>
      0.259933114 0.177276537 0.114135884 0.0590608791 0.11403086
      0.113869742 0.189701676 0.248911574 0.259933114 0.191990554
      0.032946866 0.00975968968 0.0237966608 0.0902383775 0.123316877
      0.10543865 0.251809418 0.259933114 0.259933114 0.0909531564
      0.0444481373 0.0424444489 0.0879006311 0.0784571394 0.18033725
      0.218176544 0.259933114 0.259933114 0.0430614427 0.0102299992
      0.0264570378 0.125214949 0.102318667 0.116968133 0.259933114
      0.259933114</_>
    <_>
      0.198401079 0.212329805 0.240141079 0.0866244286 0.0850995779
      0.0138654234 0.0364742614 0.0568707697 0.179448351 0.240141079
      0.162111342 0.240141079 0.147567183 0.140607879 0.037279319
      0.0708441958 0.0772949234 0.208398759 0.240141079 0.210829884
      0.240141079 0.119458593 0.142555118 0.0631021485 0.132350564
      0.105537198 0.240141079 0.240141079 0.209109992 0.240141079
      0.221635118 0.156994715 0.0403677598 0.0828413591 0.0346590579
      0.193903565</_>
    <_>
      0.0861892104 0.110779464 0.212890327 0.111729868 0.171017736
      0.198034868 0.232399374 0.11746826 0.0943974778 0.0759829432
      0.0618319474 0.161211297 0.175370902 0.201563135 0.192823574
      0.232399374 0.153781399 0.0849536285 0.062383581 0.0583646074
      0.177832007 0.0989796519 0.217043936 0.226540998 0.232399374
      0.209765032 0.0738694072 0.117168732 0.0992843658 0.232399374
      0.182162911 0.232399374 0.153253928 0.232399374 0.204938367
      0.10517817</_>
    <_>
      0.0909791738 0.257130831 0.257130831 0.0487074293 0.211822748
      0.170049891 0.0495187491 0.0147946542 0.0261272117 0.133661076
      0.218932927 0.257130831 0.132758126 0.257130831 0.0676400065
      0.0573034957 0.0958373696 0.0727986395 0.0550137721 0.107379422
      0.205690011 0.0449296162 0.257130831 0.257130831 0.257130831
      0.155140311 0.0565464944 0.069107309 0.17291294 0.257130831
      0.249703005 0.257130831 0.0656982437 0.11652343 0.06891305
      0.0548708364</_>
    <_>
      0.106363162 0.173445001 0.207144588 0.162591785 0.259461194
      0.113424405 0.125498936 0.0764329582 0.0974545404 0.0688691065
      0.079443723 0.0784920529 0.0517330579 0.259461194 0.148400098
      0.148347393 0.0800521225 0.0606113113 0.0741132945 0.177611768
      0.24937658 0.068308942 0.259461194 0.127990112 0.259461194
      0.161968112 0.0986552313 0.122579433 0.171787307 0.190891609
      0.0396990292 0.259461194 0.168623358 0.259461194 0.259461194
      0.173896149</_>
    <_>
      0.101818532 0.207729846 0.231462285 0.231462285 0.231462285
      0.0913914293 0.176527441 0.119643047 0.0897460207 0.126938358
      0.159351319 0.191146582 0.09711992 0.213113651 0.105771296
      0.231462285 0.122371323 0.0945011824 0.184511229 0.133904129
      0.137285441 0.119953588 0.221734986 0.108527035 0.147672281
      0.138641715 0.231462285 0.231462285 0.231462285 0.224681273
      0.0871581808 0.160249084 0.053552933 0.0622798689 0.0895110443
      0.231462285</_>
    <_>
      0.0591526851 0.256972104 0.272923559 0.0138956746 0.070109956
      0.0869738162 0.0701506585 0.0142704882 0.0412720367 0.060692355
      0.272923559 0.272923559 0.106863737 0.272923559 0.0738513619
      0.12456473 0.0564534217 0.0829871371 0.197016835 0.272923559
      0.272923559 0.0218411628 0.107259594 0.125894994 0.137599051
      0.0480145179 0.129740655 0.0756823644 0.272923559 0.272923559
      0.272923559 0.272923559 0.0602615289 0.0249980241 0.00675831735
      0.0496917814</_>
    <_>
      0.089544192 0.293469638 0.293469638 0.114048362 0.120918602
      0.0212144461 0.050444629 0.0504270233 0.061324589 0.170406565
      0.293469638 0.293469638 0.106295697 0.166598991 0.0506612919
      0.0716603696 0.0949898362 0.114221111 0.105932914 0.293469638
      0.293469638 0.147948653 0.178424925 0.0363718159 0.17633155
      0.0603473261 0.0766280442 0.180003494 0.293469638 0.293469638
      0.0888377577 0.0965397283 0.0271532778 0.0365992449 0.0248235017
      0.0779857039</_>
    <_>
      0.250559479 0.123662017 0.250559479 0.237654045 0.168035999
      0.0235311612 0.00999169797 0.0403123014 0.168609306 0.250559479
      0.180080354 0.173756063 0.169330597 0.146482795 0.0515344441
      0.0436226688 0.040840596 0.234625414 0.250559479 0.198416859
      0.197030142 0.183240384 0.136281967 0.0219040755 0.0257045925
      0.0859838277 0.250559479 0.250559479 0.237096071 0.16204384
      0.123427749 0.0922200456 0.0234699938 0.0599045195 0.0637917221
      0.250559479</_>
    <_>
      0.0767902359 0.133823127 0.259733647 0.243428916 0.0980740339
      0.0103857266 0.177284211 0.138526261 0.088422738 0.113567092
      0.123871237 0.259733647 0.155973479 0.169652686 0.0537883192
      0.259733647 0.258110136 0.122092359 0.0379865021 0.06796249
      0.259733647 0.259733647 0.259733647 0.0118958848 0.146936148
      0.0873402208 0.0422012843 0.112732224 0.110503241 0.250971735
      0.151194066 0.0827098489 0.0278244503 0.259733647 0.210437298
      0.0911398903</_>
    <_>
      0.20237878 0.21558094 0.247432515 0.187533513 0.192453414
      0.0497327074 0.117465049 0.14324367 0.18538782 0.158364013
      0.0863116533 0.11644534 0.152003035 0.152233183 0.0772534087
      0.201365292 0.163443387 0.234166041 0.207395941 0.0878303126
      0.137448922 0.15836972 0.196382374 0.0578937829 0.153528288
      0.219266161 0.247432515 0.247432515 0.0674005523 0.122962192
      0.167735428 0.138688967 0.054106947 0.100737326 0.114153951
      0.247432515</_>
    <_>
      0.0668407977 0.065799199 0.158754468 0.124705538 0.232706815
      0.0918887258 0.183217049 0.129254416 0.0961453617 0.128486842
      0.139087975 0.205139711 0.149814904 0.232706815 0.0856170356
      0.142924905 0.0702402741 0.172013253 0.151972562 0.033696305
      0.045667652 0.0625418946 0.1666217 0.0901009291 0.232706815
      0.232706815 0.232706815 0.203698933 0.14405781 0.218643308
      0.20259276 0.232706815 0.191474423 0.232706815 0.174393162
      0.232706815</_>
    <_>
      0.143139482 0.1048254 0.159041181 0.182559729 0.285942703
      0.0679235086 0.077635251 0.0627486855 0.122135952 0.0719012767
      0.0477493405 0.126233354 0.186546534 0.285942703 0.0976871103
      0.0692345649 0.0415039323 0.0763098225 0.268109649 0.0785354227
      0.0725824088 0.12141154 0.285942703 0.0398324057 0.135494292
      0.212876156 0.230283216 0.285942703 0.0775028095 0.0484749824
      0.11416772 0.285942703 0.0511760041 0.137378052 0.218330547
      0.285942703</_>
    <_>
      0.206288904 0.245464161 0.245464161 0.126128182 0.150970176
      0.049786441 0.0828340352 0.0727641657 0.114618972 0.151796326
      0.135011241 0.0972249508 0.124124564 0.154080734 0.0846856013
      0.213845566 0.230767384 0.222839102 0.117254354 0.245464161
      0.245464161 0.121795103 0.198940635 0.0531144962 0.131138399
      0.157077402 0.130070984 0.198490471 0.119045235 0.0962984636
      0.0829624459 0.121210523 0.0829395801 0.245464161 0.245464161
      0.245464161</_>
    <_>
      0.0437846556 0.279383898 0.301885813 0.152110785 0.140793562
      0.00880627148 0.00368154282 0.0127568599 0.0178913046 0.0672758594
      0.282084763 0.301885813 0.129796416 0.301885813 0.086845696
      0.0384936407 0.0230776537 0.0237003453 0.114194095 0.301885813
      0.301885813 0.137639537 0.157790393 0.0198488217 0.0170642007
      0.0139516145 0.0342145525 0.0282144435 0.167797655 0.301885813
      0.170166194 0.301885813 0.0817004293 0.0172670912 0.0114004975
      0.0228706039</_>
    <_>
      0.210100695 0.193860695 0.234471902 0.0640442818 0.14609997
      0.0857427269 0.0904261023 0.17714344 0.234471902 0.234471902
      0.0836870223 0.0777144656 0.0444491208 0.172881529 0.176953569
      0.175594047 0.217613652 0.234471902 0.22057125 0.104290724
      0.130403385 0.047658056 0.150230706 0.08415813 0.106443472
      0.214612439 0.234471902 0.234471902 0.122905962 0.0785226077
      0.0551760606 0.174787268 0.127056256 0.142377049 0.217262343
      0.234471902</_>
    <_>
      0.14634046 0.107881337 0.0679596588 0.0613053143 0.165095642
      0.172294781 0.230617568 0.121964559 0.188180476 0.166910619
      0.157851398 0.0640522465 0.0831602439 0.230617568 0.184885085
      0.230139628 0.129100308 0.166401133 0.230617568 0.0992139131
      0.0300015751 0.0259413328 0.0937980935 0.125277326 0.230617568
      0.19038856 0.230617568 0.230617568 0.163454354 0.0640344918
      0.100611702 0.230617568 0.230617568 0.230617568 0.0937852412
      0.230617568</_>
    <_>
      0.266289443 0.0470238514 0.0494713448 0.0917042494 0.266289443
      0.0915914625 0.0991700068 0.163697854 0.266289443 0.180058479
      0.0320056006 0.046224162 0.133850783 0.258784026 0.0998058617
      0.076178588 0.115339272 0.251881033 0.266289443 0.0413728058
      0.0335537642 0.0499207936 0.21342957 0.0696499571 0.0613206476
      0.211585209 0.266289443 0.266289443 0.0403868221 0.0269724634
      0.0634334609 0.214451134 0.0722185448 0.0575114377 0.254449189
      0.266289443</_>
    <_>
      0.206515804 0.244508386 0.217386037 0.133643553 0.180782437
      0.0283494238 0.049525883 0.0608240888 0.170366764 0.184962139
      0.151183128 0.121333584 0.148655936 0.244508386 0.155047476
      0.178094521 0.17367819 0.155015931 0.0802450255 0.131097659
      0.241071329 0.193402946 0.244508386 0.154958323 0.217143118
      0.0972349793 0.114958011 0.0623849146 0.176117986 0.244508386
      0.244508386 0.244508386 0.0555791929 0.0595273152 0.0343421698
      0.0536798611</_>
    <_>
      0.0417161956 0.08281032 0.291609138 0.267377943 0.198980212
      0.0222748145 0.0178942848 0.0347904079 0.0388807654 0.0488530733
      0.0425387137 0.291609138 0.249094769 0.291609138 0.0522618592
      0.0698219836 0.0505638346 0.0658947304 0.100173831 0.181023419
      0.291609138 0.268618792 0.248123407 0.0769459456 0.0498517007
      0.0459136739 0.0680283308 0.0210577752 0.0700251684 0.291609138
      0.291609138 0.291609138 0.0236799046 0.0128900846 0.00228830613
      0.0108845895</_>
    <_>
      0.232977226 0.24142468 0.24142468 0.0410746038 0.0980020985
      0.0335126743 0.0416209474 0.0217488967 0.105154999 0.24142468
      0.24142468 0.24142468 0.0799461752 0.19341436 0.0896273106
      0.0818575844 0.0532066487 0.145547837 0.24142468 0.24142468
      0.24142468 0.11659199 0.174676538 0.0241180919 0.0398443528
      0.00725240167 0.161299542 0.24142468 0.24142468 0.24142468
      0.216884732 0.24142468 0.0537836179 0.0428916775 0.0173645057
      0.105988026</_>
    <_>
      0.110505991 0.0281781349 0.0322600529 0.0540865362 0.257540047
      0.225081235 0.247013718 0.0857545435 0.171336442 0.220812574
      0.0703237057 0.0395874158 0.100688815 0.257540047 0.147208586
      0.110665679 0.102047436 0.251703739 0.161853522 0.0329802111
      0.020346377 0.0451833792 0.257540047 0.167525709 0.205103084
      0.13924484 0.257540047 0.257540047 0.124521054 0.100045197
      0.138183594 0.257540047 0.124247029 0.0736721829 0.0997461677
      0.257540047</_>
    <_>
      0.0850612894 0.172611669 0.232461527 0.149484336 0.232461527
      0.0918060839 0.136770964 0.0627151877 0.0699864626 0.136199877
      0.232461527 0.232461527 0.0953229368 0.202383384 0.113570988
      0.129183099 0.0777477771 0.129860461 0.10083729 0.136544019
      0.101710275 0.0659067407 0.232461527 0.131314218 0.232461527
      0.201522261 0.123835862 0.122043878 0.232461527 0.232461527
      0.0889412463 0.232461527 0.194433138 0.232461527 0.196789786
      0.157587215</_>
    <_>
      0.263189703 0.107517615 0.0591558367 0.0390187874 0.138910159
      0.126100615 0.104342543 0.112611957 0.263189703 0.263189703
      0.227478519 0.0778855979 0.033438392 0.15325731 0.141041264
      0.106641725 0.0769307539 0.257864326 0.263189703 0.124192782
      0.109989114 0.0938744619 0.196158499 0.0915461183 0.0680457205
      0.09681122 0.263189703 0.263189703 0.263189703 0.174865231
      0.101539373 0.191007167 0.086714074 0.0605083071 0.0581404455
      0.248829246</_>
    <_>
      0.154868409 0.25717476 0.25717476 0.0584604889 0.0882990956
      0.012279423 0.0686244816 0.0890699476 0.0986960158 0.093912065
      0.25717476 0.25717476 0.25717476 0.20723708 0.00995011907
      0.0454125032 0.0310686957 0.0553677492 0.25717476 0.25717476
      0.239682645 0.0585542284 0.0864004046 0.0166080371 0.106820889
      0.127951488 0.20472905 0.111496016 0.25717476 0.25717476
      0.25717476 0.25717476 0.00216039829 0.0106415963 0.0129531296
      0.0563910753</_>
    <_>
      0.183700725 0.113836966 0.184795469 0.247406319 0.247406319
      0.055534713 0.043860428 0.0487182327 0.0868958533 0.247406319
      0.188038692 0.10824611 0.157469362 0.247406319 0.0762193203
      0.0473662727 0.0499051809 0.139343619 0.247406319 0.209206998
      0.174764976 0.247406319 0.247406319 0.0552648567 0.0218565445
      0.0837502703 0.18664676 0.247406319 0.243903786 0.162645087
